{"saveLayers":[13,10,10,2],"saveNeurons":[32.0,-17.0,0.0,0.0,1.0,1.0,1.0,0.0,1.0,1.0,0.0,1.0,0.0,0.9932307004928589,0.9850338697433472,-0.30713528394699099,-0.6900208592414856,-1.0,0.9954385757446289,-0.9999995827674866,0.8998094797134399,-1.0,1.0,-0.558512270450592,-0.9606461524963379,-0.1052122563123703,0.05926792323589325,0.512793779373169,0.17627368867397309,-0.7196658253669739,0.29557928442955019,0.6595649719238281,0.8484677672386169,0.6464614868164063,0.1608532965183258],"saveWeights":[0.15661141276359559,0.09847616404294968,-0.03441339731216431,-0.13369959592819215,-0.20837150514125825,0.06494933366775513,-0.02833491563796997,-0.09414941072463989,0.03765583038330078,-0.12341135740280152,-0.29951000213623049,-0.4874001443386078,0.006264388561248779,0.06153618544340134,0.0807313323020935,-0.2679412364959717,-0.4701884984970093,0.25085827708244326,0.5654758810997009,0.4836244583129883,-0.43166232109069826,0.04545861482620239,0.5093757510185242,0.07368820905685425,-0.2577183246612549,0.3849949836730957,-0.22706855833530427,-0.3948523998260498,-0.020852189511060716,0.20606063306331635,-0.15901511907577516,0.16438983380794526,0.10964518785476685,0.23805151879787446,-0.13673514127731324,-0.2582261562347412,0.359783411026001,0.26626521348953249,-0.15174399316310883,0.03500300645828247,0.07309972494840622,0.015922999009490014,-0.11967986822128296,-0.6739690899848938,-0.16501301527023316,-0.014168083667755127,-0.42373836040496828,-0.157538503408432,0.3102654218673706,-0.06670605391263962,-0.27497315406799319,0.45618414878845217,-0.38853204250335696,0.4862022399902344,0.07228394597768784,-0.17675986886024476,0.23754221200942994,-0.14962176978588105,0.01529645174741745,0.2870124578475952,0.20662175118923188,-0.23007331788539887,0.49666082859039309,0.44718408584594729,0.2126261442899704,-0.07280407100915909,-0.36344408988952639,0.436411052942276,0.36615538597106936,0.048524558544158939,-0.055476196110248569,-0.46595001220703127,-0.10265690088272095,-0.008633118122816086,-0.13094371557235719,0.040531501173973086,-0.44584929943084719,-0.11187499761581421,-0.2802015542984009,-0.06019657850265503,0.2670471668243408,-0.31759893894195559,0.2407098263502121,0.11183437705039978,-0.3076927661895752,0.12341644614934921,-0.07893723249435425,0.056404173374176028,-0.3392449617385864,-0.02043861150741577,0.472135066986084,0.1928916573524475,0.23339103162288667,0.034883081912994388,-0.14022034406661988,-0.34373965859413149,-0.13292258977890016,0.04056182876229286,0.06236392259597778,-0.03375440835952759,-0.04067510366439819,0.08101008087396622,-0.47313785552978518,-0.2496756762266159,-0.2667708396911621,0.05778235197067261,0.048744555562734607,0.42841389775276186,-0.45504626631736758,-0.36137473583221438,-0.44669926166534426,0.06772547960281372,-0.1711946576833725,0.49993932247161868,-0.33645492792129519,0.2259187549352646,-0.1337863802909851,0.20562797784805299,-0.5029213428497315,0.22115002572536469,-0.28710201382637026,0.19425629079341889,0.0029785207007080318,-0.3818042278289795,0.2590630054473877,-0.1312996745109558,-0.02124268375337124,-0.34929612278938296,0.22939525544643403,-0.05078190565109253,0.14758440852165223,0.22135160863399507,0.28047728538513186,0.455652117729187,0.45231127738952639,-0.41402387619018557,-0.00916987657546997,-0.327450156211853,-0.2182024121284485,0.08697840571403504,-0.4550490379333496,-0.05322258174419403,-0.04902070760726929,0.4040703773498535,0.48180413246154787,-0.4762791395187378,0.12989240884780885,-0.10386666655540467,0.06085270643234253,-0.19594626128673554,-0.2983431816101074,0.2209760993719101,0.41589486598968508,-0.028638681396842004,-0.08757168054580689,0.2912184000015259,0.21612702310085298,-0.37691259384155276,-0.1112547516822815,-0.10241371393203736,0.48465585708618166,-0.18527112901210786,0.011482059955596924,-0.0130085414275527,-0.187727153301239,-0.06978827714920044,0.03446155786514282,-0.10843771696090698,0.18063828349113465,-0.3005729913711548,-0.41598451137542727,0.3220163583755493,-0.3570842444896698,-0.1409681886434555,-0.08626943826675415,0.09196501970291138,-0.17776769399642945,0.2581178843975067,0.5878922939300537,0.205593079328537,-0.306020587682724,0.12130255997180939,-0.4214606285095215,0.6046138405799866,0.07371823489665985,0.029840363189578058,-0.22984153032302857,0.07626950740814209,-0.06775947660207749,0.07813192903995514,0.08452242612838745,-0.029827557504177095,-0.02398616075515747,-0.258256196975708,0.4930703639984131,-0.22511214017868043,0.076606884598732,0.036077436059713367,0.339938759803772,-0.2958512604236603,-0.9675651788711548,0.3826467990875244,-0.22913414239883424,0.4287850856781006,-0.2911126911640167,0.4019990563392639,0.24229274690151215,0.12370032072067261,-0.09647780656814575,0.20748962461948396,0.4578004479408264,-0.08110648393630982,-0.3662340044975281,-0.3721127510070801,0.7479140758514404,-0.08043380081653595,-0.31583356857299807,0.18941634893417359,-0.20771390199661256,-0.06801953166723252,-0.41216397285461428,0.19557124376296998,0.018256328999996187,-0.16470199823379517,-0.4890329837799072,-0.21937616169452668,0.1312163770198822,0.39553511142730715,-0.3362584114074707,0.2777401804924011,-0.0986936166882515,0.14054416120052339,-0.23152396082878114,-0.03425055742263794,0.4468238055706024,0.3767744302749634,-0.38683855533599856,-0.03702002391219139,0.14249537885189057,-0.09455043077468872,0.0804700255393982,0.043005287647247317,-0.08546632528305054,-0.16515856981277467,-0.4003852605819702,0.039732515811920169,0.32566535472869875,0.42835938930511477,0.4755774736404419,-0.00977236032485962]}