{"saveLayers":[13,10,10,2],"saveNeurons":[22.0,-7.0,0.0,0.0,1.0,1.0,1.0,0.0,1.0,1.0,0.0,1.0,0.0,-0.9926461577415466,-0.9999992847442627,0.9437942504882813,0.9195255637168884,-1.0,1.0,-0.9352311491966248,-0.42141714692115786,0.9999999403953552,0.9999650716781616,-0.4769192337989807,-0.8217957019805908,-0.508282482624054,-0.047882094979286197,0.19887825846672059,-0.15426695346832276,0.299742192029953,-0.6775835752487183,0.5199681520462036,0.9528977870941162,0.02399216964840889,-0.020007546991109849],"saveWeights":[-0.18663150072097779,-0.08746331930160523,0.44930922985076907,0.30366671085357668,0.15436969697475434,-0.2074669897556305,0.09737354516983032,0.08772081136703491,-0.005634584929794073,0.4344980716705322,-0.21951764822006226,-0.030485928058624269,0.042860791087150577,-0.15545254945755006,0.4858863353729248,0.3318917751312256,0.18638581037521363,-0.6120927333831787,0.09477978944778443,0.38366320729255679,0.48751139640808108,-0.4368045926094055,-0.022525012493133546,0.023152025416493417,-0.23766551911830903,-0.7013852000236511,-0.05030547082424164,-0.3406486511230469,0.39260929822921755,0.0038714734837412836,-0.29395556449890139,0.2372140735387802,0.3034118413925171,-0.4309936761856079,0.11263172328472138,-0.1608681082725525,0.3503955602645874,0.04543489217758179,0.16277891397476197,0.08235622942447663,-0.005250751506537199,-0.26735055446624758,-0.05738035589456558,0.35871422290802,-0.004279735032469034,-0.40123483538627627,0.51810622215271,-0.29623597860336306,0.2544134855270386,-0.3199573755264282,-0.4240223169326782,0.07292550802230835,-0.44592830538749697,0.3314237594604492,0.03269900009036064,0.030878830701112748,-0.765284538269043,-0.4992009401321411,-0.2692997455596924,-0.149280846118927,0.01612912118434906,-0.17435280978679658,-0.2558459937572479,-0.007366248406469822,-0.09687097370624542,0.4164299964904785,-0.050843894481658939,-0.31608498096466067,-0.3624427318572998,0.39036989212036135,-0.17516428232192994,0.335674524307251,-0.43927478790283205,0.030681312084197999,-0.006605803966522217,0.2755899429321289,0.05454772710800171,0.49513471126556399,0.07628989219665528,0.47056376934051516,0.384584903717041,-0.0089072585105896,0.07997769117355347,0.07432383298873902,-0.41816022992134097,0.35112929344177248,-0.4478428363800049,0.10227841138839722,0.22731322050094605,0.27641308307647707,-0.20058006048202516,-0.00765238469466567,-0.028862178325653077,0.44637176394462588,-0.15376709401607514,-0.17828398942947389,0.48972201347351076,0.07772177457809448,-0.4689875841140747,-0.6099315285682678,-0.12088817358016968,-0.09329301118850708,-0.3914368152618408,-0.4748450517654419,0.4313938617706299,0.4169217348098755,0.013289381749927998,0.25192034244537356,0.34047019481658938,0.12460505962371826,-0.05266574025154114,0.04792995750904083,0.8710082769393921,0.1962265819311142,0.13813987374305726,0.36776793003082278,-0.4867832660675049,0.14792536199092866,-0.14765618741512299,0.36715471744537356,-0.3200209140777588,0.34347450733184817,-0.31606006622314455,0.09747499227523804,0.03161180764436722,0.33622753620147707,0.7882804274559021,-0.42688652873039248,-0.31005844473838808,-0.017451226711273195,-0.42594850063323977,0.49204933643341067,0.10088592767715454,-0.4813663959503174,-0.22209663689136506,-0.3970724940299988,-0.04317587614059448,0.6047291159629822,0.05080050975084305,-0.013704252429306507,0.0755327120423317,-0.0010959591018036008,0.1528870314359665,-0.3800790309906006,0.25139695405960085,-0.20817774534225465,0.37352705001831057,-0.11112433671951294,0.11720019578933716,-0.48838192224502566,0.6814347505569458,0.36759045720100405,-0.37599948048591616,0.21306517720222474,-0.38024798035621645,-0.290377140045166,-0.4495491683483124,0.06624239683151245,-0.2776604890823364,0.1878293752670288,0.31677424907684328,0.3971976935863495,-0.23761910200119019,-0.09211593866348267,-0.49810051918029787,-0.2633250951766968,0.39914751052856448,-0.46680355072021487,0.09793561697006226,0.5665748715400696,-0.11448614299297333,-0.18764816224575044,-0.06900018453598023,0.2860032320022583,0.2837221622467041,-0.013160735368728638,-0.3105437159538269,0.06529015302658081,-0.2854428291320801,-0.22819124162197114,0.22958312928676606,0.04457419365644455,0.7566248774528503,-0.6918573975563049,0.19172321259975434,-0.018075326457619668,0.17711137235164643,-0.3020857572555542,0.07746440172195435,-0.04028846323490143,0.21417617797851563,0.07746166735887528,-0.5429512858390808,0.008176537230610848,-0.19560712575912476,0.7108675837516785,-0.0746089443564415,-0.024093210697174073,0.4065821170806885,-0.5387906432151794,-0.13725000619888307,0.3538219928741455,-0.3618466854095459,0.27380919456481936,0.4963477849960327,-0.17093025147914887,0.6380547881126404,-0.47356927394866946,-0.048837121576070788,0.34596824645996096,0.5040609240531921,0.05437225103378296,0.4319632053375244,0.4483022689819336,-0.16287380456924439,0.011038482189178467,-0.05718618631362915,-0.19244596362113954,-0.008074939250946045,-0.23931537568569184,0.37441766262054446,-0.2576127052307129,0.3974236249923706,0.20918618142604829,-0.18215416371822358,-0.34840357303619387,-0.49185264110565188,0.002446591854095459,0.4906808137893677,0.37560510635375979,0.4606941342353821,0.02228611707687378,-0.09092678129673004,0.2866542339324951,-0.45021724700927737,-0.36922669410705569,0.006647429894655943,0.0407901406288147,-0.0032165118027478458,0.04138120636343956,0.05145915970206261,-0.42445504665374758,0.23638854920864106,0.47377967834472659,0.022233178839087487,-0.08420280367136002,0.3970983028411865,-0.02554304338991642,-0.5780607461929321,-0.3196762800216675]}