{"saveLayers":[14,10,10,4],"saveNeurons":[4.0,9.0,0.0,1000.0,6.0,9.0,0.0,1000.0,0.0,1000.0,1.0,0.0,1.0,1.0,-1.0,-1.0,-1.0,1.0,-1.0,1.0,-1.0,-1.0,1.0,-1.0,0.34595102071762087,0.5219468474388123,0.20467974245548249,-0.7594299912452698,0.7515867948532105,0.11706365644931793,0.7002072930335999,-0.8134415745735169,0.7424836158752441,-0.2535591125488281,0.0532681979238987,0.989542543888092,0.13324391841888429,-0.34153079986572268],"saveWeights":[-0.015525483526289463,-0.13897591829299928,-0.0016613974003121257,0.003214624710381031,-0.12472041696310044,-0.3038516640663147,-0.21928292512893678,-0.19494414329528809,0.01164293847978115,-0.0003896307898685336,0.09889286011457443,0.28636157512664797,0.10453800112009049,0.20152023434638978,0.3238201141357422,0.19083057343959809,0.10998748242855072,-0.16194267570972444,0.34253811836242678,-0.022471347823739053,-0.24848291277885438,-0.0325949490070343,0.07146316766738892,-0.11929380893707276,-0.6717767715454102,0.019314024597406389,-0.16689103841781617,0.07570148259401322,-0.36866021156311037,-0.29268813133239748,0.1351606547832489,-0.05921788886189461,0.7429535388946533,-0.023956190794706346,-0.0025792138185352089,0.3026094436645508,0.4958847761154175,-0.29741644859313967,-0.10931595414876938,-0.38180458545684817,-0.3964177370071411,0.6705769300460815,0.08037395775318146,-0.6417908668518066,0.2621188163757324,-0.02595355175435543,3.1176087856292726,0.18345104157924653,-0.1386377215385437,0.12117999792098999,0.05325049161911011,0.361573189496994,-0.26355940103530886,-0.0023398473858833315,-0.000810546160209924,0.7286984920501709,-0.2880614101886749,-0.3976649045944214,0.13907288014888764,0.18193744122982026,0.4793802499771118,-0.003737442195415497,-1.7830321788787842,-0.34127330780029299,0.38892051577568056,0.021314524114131929,-0.22630415856838227,-0.010080158710479737,0.008989857509732247,0.003935600630939007,0.4366823434829712,0.38113150000572207,0.004631055518984795,-0.23998302221298219,0.12156015634536743,-1.4882475137710572,0.5789887309074402,0.003560609882697463,-1.372627854347229,0.3589112162590027,-0.3916883170604706,-0.48282384872436526,-0.49082112312316897,0.06978589296340943,-0.09143758565187454,0.009342008270323277,-0.2570820152759552,-0.08375468105077744,-0.011665876023471356,0.34117183089256289,0.12362390756607056,-0.34065350890159609,-0.15612632036209107,0.1354338824748993,0.017992960289120675,0.060201842337846759,0.4046030044555664,-0.03573526814579964,0.1386302411556244,-0.000030511959266732447,1.3283039331436158,-0.02168363332748413,0.03753091022372246,-0.01953923888504505,-0.4756796360015869,0.1410302221775055,-0.24310408532619477,-0.3978022336959839,0.18965314328670503,0.41381359100341799,-0.4152454137802124,-0.17515701055526734,-0.000295322883175686,0.32328662276268008,0.09196358919143677,-0.027201950550079347,-0.0013743042945861817,0.13951347768306733,0.40444687008857729,0.5597310662269592,0.0076470584608614449,0.21081684529781342,-0.06074348837137222,-0.37347328662872317,0.27003157138824465,0.007733523845672607,-0.2432386428117752,0.7825158834457398,-0.09992779791355133,0.10511084645986557,-0.0001849848631536588,-0.1029282957315445,0.05784231424331665,0.21580861508846284,-0.10201548784971237,-0.6470128893852234,0.20326019823551179,0.4160991907119751,0.272005558013916,-0.13497382402420045,-0.2102736085653305,0.23954524099826814,-0.9993752241134644,0.406556099653244,0.014319795183837414,-0.20412689447402955,0.46769267320632937,-0.09326203912496567,-0.22948218882083894,0.19346335530281068,0.22375153005123139,-0.028667602688074113,-0.3035590946674347,-0.0198808703571558,0.3870115280151367,0.1086224764585495,-0.0018616336164996029,0.3112456798553467,-0.1186053603887558,-1.1967960596084595,-0.006487580016255379,0.2553444504737854,-0.3094712495803833,-0.018050873652100564,0.20567686855793,0.14218667149543763,-0.008036055602133274,-0.27536773681640627,-0.2898578643798828,-0.2349928468465805,-0.08377645909786225,-0.16187280416488648,-0.039457228034734729,0.1080523133277893,0.8156397342681885,0.4791698455810547,0.7928237915039063,0.5657256245613098,-0.10317953675985336,-0.4101731777191162,-0.12160426378250122,0.11537224054336548,-0.29119715094566347,0.36609140038490298,0.0010853268904611469,0.5800042748451233,0.5877659916877747,0.026598388329148294,0.3313342332839966,-0.017182674258947374,-0.04201894998550415,-0.025581328198313714,-0.23082441091537476,-0.08981770277023316,-0.36550796031951907,-0.17315346002578736,0.0015284669352695346,0.3960001468658447,0.3101674020290375,0.19599740207195283,-0.062073301523923877,-0.23088890314102174,0.25166183710098269,0.010376360267400742,-0.025158634409308435,0.2571830749511719,0.06973534822463989,0.08126908540725708,0.6855280995368958,0.0008349426207132638,-0.0025481334887444975,0.4928230047225952,0.009129512123763562,0.12260359525680542,0.05698877573013306,-0.016987865790724756,0.4193805754184723,0.041126199066638949,-0.23388884961605073,-0.00805436260998249,-0.31749236583709719,0.160195454955101,-0.17036496102809907,0.39652761816978457,-0.36373138427734377,-0.48823416233062746,0.3094801902770996,-0.0021022758446633817,0.4296088218688965,-0.23407414555549622,-0.15927129983901978,0.13617746531963349,0.09457641839981079,0.27594947814941409,0.34423211216926577,-0.27367711067199709,-0.18850098550319673,0.07037974148988724,0.04360295832157135,0.007494713179767132,-0.17108316719532014,0.4584106206893921,-0.19038265943527223,0.038516782224178317,-0.1784394383430481,0.6626052260398865,0.42265844345092776,-0.2437952160835266,-0.5419338345527649,0.37025517225265505,-0.000021335743440431543,-0.2650630474090576,0.24896635115146638,-0.3161337375640869,0.7000969052314758,-0.14081086218357087,2.117384672164917,-0.6140406131744385,-0.03868485242128372,-0.03319602087140083,0.0759386420249939,-0.47381389141082766,0.029980136081576349,0.04878515005111694,-0.000043053089029854164,-0.10474282503128052,0.2566492259502411,-0.15543876588344575,0.07853671163320542,-0.1333884596824646,-0.015446661040186882,0.2801152467727661,-0.599609911441803,0.47688519954681399,-0.058601588010787967,-0.048747919499874118,0.001238431315869093,0.3068360984325409,0.46498584747314455,0.23096993565559388]}