{"saveLayers":[10,10,10,4],"saveNeurons":[5.999999046325684,7.0,0.0,1000.0,6.0,9.0,0.0,1000.0,0.0,1000.0,-1.0,1.0,-1.0,1.0,-1.0,-1.0,1.0,-1.0,-1.0,0.90438312292099,-0.8414626717567444,-0.9334849715232849,0.4579809010028839,-0.06676571071147919,0.8233755826950073,-0.8981398940086365,-0.8852511048316956,-0.8508267402648926,0.35310131311416628,-0.9930739998817444,0.4166242182254791,0.6544486880302429,-0.8475203514099121,-0.9379857778549194],"saveWeights":[-0.013933469541370869,0.029745033010840417,0.3610527813434601,-0.09214536100625992,0.024317800998687745,0.26605796813964846,-0.48555561900138857,-0.21984636783599854,-0.0012112670810893179,-0.38282620906829836,-0.24355453252792359,0.26052960753440859,-0.11227459460496903,-0.291970819234848,0.42560818791389468,-0.3139576017856598,-0.11850827932357788,0.10337935388088227,-0.09500235319137573,0.643500030040741,0.005386769771575928,-0.13126546144485475,0.0774657130241394,-0.5613781213760376,0.35639429092407229,-0.4069664478302002,0.19779036939144135,0.2127138078212738,0.5559180378913879,-0.49625229835510256,-0.20686258375644685,-0.23358696699142457,-0.16641759872436524,-0.021537601947784425,-0.2142464518547058,0.06974636763334274,0.3208666741847992,0.3129081726074219,-0.18131023645401,0.4533841609954834,-0.030236737802624704,0.4357268810272217,0.044131696224212649,0.249448761343956,-0.008338470943272114,0.7346428632736206,0.2588615417480469,-0.28860998153686526,0.051452867686748508,-0.381722092628479,-0.010680552572011948,0.0309122484177351,-0.051112350076436999,-0.47785601019859316,-0.43797028064727785,0.05144203081727028,0.06205419823527336,-0.024465076625347139,-1.805746078491211,0.40055784583091738,0.08863627910614014,-0.2470085322856903,-0.005733855068683624,0.3704739809036255,0.01687520742416382,-0.2621670961380005,-0.02426932007074356,0.14337831735610963,0.014472084119915963,-0.20048747956752778,-0.1509009450674057,0.4157721996307373,0.2546856105327606,0.1830056756734848,-0.020840773358941079,0.06303077936172486,-0.19915561378002168,-0.49164441227912905,0.4190390110015869,0.09065550565719605,-0.0526411235332489,0.04071994498372078,-0.4273691177368164,-0.13281570374965669,0.46686220169067385,-0.10213103890419007,0.03807028755545616,-0.02471870183944702,-0.24331003427505494,0.10911373794078827,-0.15875858068466187,-0.1423541009426117,-0.03172653913497925,-0.10522910207509995,0.016601167619228364,-0.036795079708099368,-0.022316141054034234,-0.2610708475112915,0.47922849655151369,0.36997631192207339,0.04898656904697418,0.18579861521720887,0.24441023170948029,0.45631563663482668,-0.007445213384926319,1.518317461013794,0.13730381429195405,-0.016779283061623575,0.004813481122255325,-0.23582659661769868,0.4257112741470337,-0.724383533000946,-0.036487821489572528,-0.4505617618560791,0.12577782571315766,0.15786482393741609,0.4615994393825531,-0.013504534028470517,-0.08456093072891236,-0.438618540763855,-0.1984085738658905,0.0853789895772934,0.08625524491071701,-0.10315243899822235,0.2518160343170166,0.0829634740948677,0.310934841632843,0.0021514296531677248,-0.30760833621025088,0.13131733238697053,-0.01889783889055252,0.2303164005279541,-0.1797751784324646,0.05068923160433769,0.37159228324890139,0.08798979967832566,-0.22878716886043549,0.0009164364309981465,-0.3608558177947998,-0.24117428064346314,-0.024490470066666604,0.17636698484420777,-0.028732439503073694,0.6883099675178528,-0.10482941567897797,-0.224162757396698,-0.3401715159416199,-0.3426666259765625,0.0010491065913811327,-0.08970559388399124,0.5363991856575012,0.0023166851606220009,-0.042492687702178958,0.013712351210415364,0.01348027028143406,0.2722967565059662,-0.00002436365139146801,0.27050361037254336,0.3033120632171631,-0.1382380574941635,-0.0042432332411408428,-0.020708207041025163,-0.02358073927462101,-0.00037354155210778117,0.45059657096862795,0.15966175496578217,0.06468826532363892,0.38930967450141909,0.13936161994934083,-0.36714065074920657,-0.1368202567100525,0.08585939556360245,0.24131238460540772,-0.5798196792602539,-0.05632580816745758,-0.4954131841659546,-0.6878591179847717,0.019831566140055658,-0.116107277572155,-0.6864821314811707,-0.055644690990448,0.5717451572418213,-0.08845701068639755,-0.061193112283945087,-0.13518503308296204,0.03138428181409836,-0.0001352260005660355,0.499434232711792,-0.1739213466644287,-0.07057181000709534,0.4319443702697754,-0.001316288486123085,2.505413770675659,0.40982329845428469,0.28448835015296938,-0.4539611339569092,-0.23552531003952027,-0.008985624648630619,-0.08139697462320328,-0.36108124256134035,-0.4300224781036377,-0.3493333160877228,0.1693369746208191,-0.07158064842224121,-0.11270064115524292,0.01324345450848341,-0.03034246526658535,0.22423210740089417,-0.22144454717636109,-0.02026677504181862,-0.08854979276657105,-0.4743950366973877,0.4926292896270752,-0.3414328694343567,-0.0404394157230854,-0.1120394617319107,-0.033806025981903079,0.009295284748077393,-0.006304812151938677,0.07033120095729828,0.12343257665634155,0.3016716241836548,0.0023738741874694826,-0.44208836555480959,-0.36609816551208498,0.02411029487848282,0.40626513957977297,0.009448646567761898,-0.17656809091567994,0.14026647806167603,0.003014002228155732,0.0741022452712059,0.18401876091957093,-0.3770548105239868,-0.16816645860671998,-0.29016363620758059,0.49954068660736086,1.05583655834198,-0.4205504059791565,0.3945885896682739]}