{"saveLayers":[14,10,10,4],"saveNeurons":[5.999999046325684,7.0,0.0,1000.0,6.0,9.0,0.0,1000.0,0.0,1000.0,1.0,0.0,1.0,1.0,1.0,-1.0,-1.0,1.0,-1.0,1.0,1.0,1.0,-1.0,1.0,-0.24780087172985078,-0.7349644303321838,0.7559658885002136,0.49873122572898867,-0.7341858148574829,-0.5999000668525696,0.5649909377098084,0.05980336293578148,-0.09843530505895615,0.8917394876480103,-0.9757012128829956,0.5398823618888855,-0.1748218983411789,-0.5345281958580017],"saveWeights":[0.013996481895446778,-0.1935144066810608,0.3035903573036194,0.24967771768569947,0.19451743364334107,0.02946552447974682,-0.48261964321136477,-0.3934561014175415,-0.19952985644340516,0.4283517599105835,0.20550106465816499,0.0036305785179138185,0.26041972637176516,-0.42870402336120608,0.4722754955291748,-0.5621033310890198,-0.370150625705719,-0.3532834053039551,0.0008358255145139992,-0.30863797664642336,0.37702512741088869,0.4421802759170532,0.01863783597946167,-0.5845697522163391,-0.011398442089557648,-0.12648171186447144,-0.04099398851394653,0.001922226627357304,0.16041098535060883,-0.0331384539604187,0.03125828504562378,-0.1517464518547058,-0.1484030783176422,0.4407261610031128,-0.30495768785476687,-0.1425999253988266,0.17865274846553803,0.21848691999912263,-0.32708609104156496,-0.07144926488399506,0.09060555696487427,-0.030566394329071046,-0.3797682523727417,-0.1945093721151352,0.017403291538357736,0.0000455661938758567,0.000981136574409902,0.6487587094306946,-0.2734522819519043,0.3916794955730438,-0.000293874618364498,-0.36596906185150149,0.6555578708648682,0.11625120043754578,-0.01618964597582817,-0.8700737953186035,-0.00055891671217978,0.17509256303310395,0.0006150603294372559,0.2263374924659729,0.4951275587081909,-1.1693229675292969,-0.4229554235935211,0.2534971833229065,0.2208380103111267,-0.9600692391395569,0.4566439390182495,-0.16562050580978394,0.031718552112579349,0.15926693379878999,0.01782786287367344,-0.22363272309303285,-0.4890643358230591,-0.0029219684656709434,-0.10060534626245499,0.03815498203039169,-0.11543313413858414,0.0014957499224692584,0.14741455018520356,0.015616673044860363,0.013885747641324997,-0.014521473087370396,-0.051349587738513949,0.06241840124130249,-0.4560152292251587,0.17866204679012299,0.28334030508995058,-0.24319440126419068,0.11779540032148361,0.03333312273025513,-0.09582346677780152,0.46964532136917117,0.3047507107257843,0.32280391454696658,0.7356439828872681,0.003996808081865311,0.03623777627944946,-0.15348771214485169,-0.15858235955238343,-0.05225122347474098,-0.0069252001121640209,0.00032188170007430017,-0.04848574101924896,0.21106301248073579,0.41651561856269839,-0.11213519424200058,0.3446075916290283,0.49343663454055788,-0.12524519860744477,0.08516831696033478,0.016605794429779054,0.2887296676635742,0.4343186616897583,-0.2386907935142517,0.39450502395629885,0.06173817813396454,-0.37679871916770937,0.4159468412399292,-0.0006380206905305386,-0.4048278033733368,-0.10125187784433365,-0.23574168980121613,-0.5075678825378418,-0.1505236029624939,-0.006006105337291956,-0.20201006531715394,-0.16590574383735658,-0.000012068076102877967,-0.2219601273536682,0.019155919551849366,-0.000040212889871327206,-0.07056786864995957,-0.1230044960975647,0.30746281147003176,-0.09467519819736481,0.9769086241722107,0.3205360174179077,0.19358868896961213,-0.0007058712653815746,-0.43519142270088198,0.1324571669101715,0.09460306912660599,0.31448104977607729,0.3841553330421448,0.3090980648994446,-0.1150556206703186,0.574315071105957,-0.7373744249343872,-0.08599275350570679,0.14062345027923585,-0.34807121753692629,0.34723055362701418,-0.13200479745864869,-0.008844530209898949,0.006761551834642887,-0.06363683938980103,0.1604451686143875,-0.010458717122673989,0.5196677446365356,0.07278218865394592,-0.3510100841522217,-0.6416823863983154,0.2338268756866455,-0.06081324815750122,-0.9296700358390808,0.026913216337561609,-0.038028061389923099,0.16131794452667237,-0.018693411722779275,-0.10786563158035279,-0.517257571220398,-0.23137372732162476,0.12406481802463532,-0.0007240074337460101,0.12578462064266206,0.009665955789387226,0.37858259677886965,0.17761407792568208,-0.520004153251648,-0.001793615985661745,-0.09593909978866577,0.04089086130261421,-0.02371196821331978,0.46389999985694888,0.23940958082675935,-0.1805397868156433,-0.3925567865371704,0.002075513591989875,-0.029294192790985109,-0.507393479347229,-0.32428765296936037,-0.00164027011487633,0.04084357991814613,0.042295485734939578,0.12689517438411714,0.0008037123479880393,0.44439709186553957,0.02676912024617195,0.13600610196590424,-0.5808641314506531,-0.19796770811080934,-0.22170394659042359,-0.42497897148132326,-0.15333546698093415,-0.15379244089126588,0.22932690382003785,-0.006386636756360531,-0.24747024476528169,0.029100477695465089,0.24459248781204225,-0.04691474139690399,-0.012380466796457768,-0.13297516107559205,0.4230554699897766,-0.31714996695518496,-0.7126762866973877,0.09511716663837433,-0.059728432446718219,0.12476378679275513,0.02327985316514969,-0.2143053412437439,-0.32617485523223879,0.0005400000954978168,0.000025681254555820487,0.3621286451816559,0.15477724373340608,0.42822372913360598,-0.39044126868247988,0.037124671041965488,-0.0034166856203228237,-0.46481579542160036,-0.6439632773399353,-0.02112787961959839,0.3509337604045868,-0.008867432363331318,0.018459532409906389,0.4637460708618164,-0.035138122737407687,-0.506524384021759,-0.08331263810396195,0.14474184811115266,0.4056220054626465,-0.8208761215209961,-0.37853026390075686,0.02794516831636429,0.044998977333307269,-0.215106800198555,-0.022508688271045686,-0.615608811378479,-1.060856819152832,0.26284104585647585,-0.0002700686454772949,0.00018730592273641378,0.471481591463089,0.018262993544340135,-0.26503458619117739,0.44802558422088625,-0.0893607810139656,-0.10391625016927719,0.03368465229868889,0.2401023954153061,-0.1472134292125702,-0.13694308698177339,0.009569942951202393,-0.15293391048908235,-0.43298590183258059,-0.39626288414001467,0.018408073112368585,0.04369767755270004,-0.3044931888580322,-0.02281012386083603,-0.5559505820274353,-0.3079414367675781,-0.23692375421524049,0.11995505541563034,0.9121786952018738,-0.005587879568338394,-1.373597264289856,0.10917304456233978,0.080258309841156]}