{"saveLayers":[14,10,10,4],"saveNeurons":[5.999999046325684,7.0,0.0,1000.0,6.0,9.0,0.0,1000.0,0.0,1000.0,1.0,0.0,1.0,1.0,1.0,1.0,-1.0,1.0,-1.0,-1.0,-1.0,1.0,-1.0,1.0,0.5092333555221558,0.06754317879676819,-0.12629824876785279,-0.528900146484375,0.45044317841529848,-0.9664849042892456,-0.4017384350299835,-0.76401686668396,-0.05437254533171654,-0.3553283214569092,-0.2866254448890686,0.4282609820365906,-0.08741871267557144,-0.1325955092906952],"saveWeights":[-0.060149289667606357,0.018949471414089204,-0.004276692867279053,0.27538180351257326,-0.24652796983718873,-0.015265429392457009,0.2525137662887573,0.7291147112846375,0.3300532102584839,0.3189241886138916,-0.03356438875198364,-0.0054419636726379398,0.048832476139068606,-0.486224889755249,0.17075897753238679,0.3563944101333618,-0.7932318449020386,0.1762852519750595,-0.04643944650888443,-0.17778974771499635,0.29894790053367617,-0.02819274365901947,-0.06511589884757996,0.07029587775468826,0.06924215704202652,-0.4446547329425812,0.061879415065050128,-0.031248461455106736,-0.8313944935798645,-0.5131986737251282,-0.3658447265625,-0.08880328387022019,0.28908488154411318,0.2604738473892212,0.2445456087589264,0.0001998800871660933,0.33633852005004885,-0.48056888580322268,0.2556210160255432,0.020199153572320939,0.4805692434310913,-0.04066438227891922,0.10369006544351578,0.021391520276665689,-0.5020011067390442,0.10040082037448883,0.8943425416946411,-0.023145286366343499,-0.1287066787481308,0.1454993337392807,0.2890743017196655,0.09241507202386856,0.07214444875717163,-0.5627124309539795,-0.09964555501937866,-0.224989116191864,-0.37828174233436587,-0.016378318890929223,1.145646572113037,-0.596354067325592,0.07030898332595825,-0.6198158860206604,-0.13832733035087586,-0.026825809851288797,0.041157066822052,0.0222149845212698,0.06672694534063339,0.42709052562713625,-0.387018084526062,0.21767114102840424,-0.514093816280365,-0.010702311992645264,0.1680023968219757,-0.24196237325668336,-0.6918661594390869,-1.1888583898544312,-0.42314910888671877,0.12220703065395355,-0.2441433072090149,-0.06674796342849732,0.2919831871986389,-0.1251031756401062,0.23165373504161836,-0.639657735824585,0.005070598796010017,-0.7724200487136841,0.03369295969605446,-0.012338066473603249,0.09369131922721863,-0.4813317060470581,0.024701019749045373,0.02063530683517456,0.10589764267206192,-0.17595499753952027,0.03673475980758667,-0.21483224630355836,0.7603299617767334,0.030944857746362687,0.686195433139801,-0.02795654535293579,0.16528962552547456,0.17804627120494843,-0.06859902292490006,0.40008294582366946,0.35095635056495669,0.0027149319648742677,0.2868082523345947,-0.01037328876554966,-0.47450757026672366,0.00017011816089507192,0.031090499833226205,0.01442020945250988,0.022111499682068826,-0.0006387879839166999,0.07490859925746918,-0.06712383031845093,-0.6087058186531067,0.49563300609588625,0.3079897165298462,-0.0070806145668029789,0.4416302442550659,-0.0030924698803573848,0.06660091876983643,-0.6191975474357605,0.02492361329495907,0.4058203399181366,-1.0964561700820923,0.072925865650177,0.24288307130336762,0.12281280755996704,-0.023589827120304109,-0.7404442429542542,0.07075566053390503,-0.1423943042755127,-0.10604915022850037,0.3158010244369507,0.7046820521354675,-0.29987388849258425,-0.16092795133590699,-0.10001587122678757,0.08600679039955139,0.21909765899181367,0.12781301140785218,-0.07240849733352661,-0.05299454927444458,0.028667129576206209,-0.1613156944513321,0.13836990296840669,-0.0031197925563901664,0.12967847287654878,0.04169279336929321,-0.3498263359069824,-0.2608128786087036,0.018139256164431573,-0.23235350847244264,0.09494014084339142,0.130415678024292,-0.2949327230453491,-0.16967235505580903,0.21509025990962983,-0.13895832002162934,-0.01270020566880703,-0.005597596988081932,-0.17585580050945283,-0.26734066009521487,0.17757266759872437,-0.006325860042124987,-0.1863289475440979,-0.15985554456710816,0.12531998753547669,0.6394957304000855,0.07801038026809693,0.46792781352996828,0.03787761926651001,0.09137576818466187,0.18561038374900819,-0.10059493780136109,-0.369421124458313,0.0458335317671299,-0.2844269573688507,0.12839756906032563,0.11770588159561157,0.26576530933380129,0.030240660533308984,0.06832291930913925,0.3413504362106323,-1.03429114818573,-0.011300550773739815,-0.5025968551635742,-0.6412367224693298,0.0008672382100485265,-0.11225229501724243,-0.3481181859970093,0.1164286658167839,0.37929558753967287,0.3111230134963989,1.5170012712478638,-0.31860899925231936,-0.15013259649276734,-0.013269218616187573,-0.00009619421325623989,-0.4535467028617859,-0.5847544074058533,0.35730549693107607,0.027879536151885988,0.38801145553588869,0.17619848251342774,0.024832354858517648,0.3458796739578247,-0.0010004049399867654,0.07206716388463974,0.17205914855003358,-0.47575974464416506,0.2047480195760727,0.157007098197937,0.07682472467422486,0.21601898968219758,-1.084226369857788,0.048193540424108508,-0.34815776348114016,-0.05260912701487541,0.005838780198246241,-0.40707170963287356,-0.07253004610538483,-0.03173338249325752,0.22640405595302583,-0.3204711675643921,-0.46785569190979006,0.3415941298007965,0.3414517641067505,-0.5580370426177979,0.13406053185462953,0.48270222544670107,0.10563907772302628,0.13536880910396577,-0.016366848722100259,-0.1546805500984192,0.7619602680206299,0.17722450196743012,-0.19090360403060914,-0.0001638447429286316,0.04057140648365021,-0.4217343330383301,0.29977285861968996,-0.08378148078918457,0.21423719823360444,0.0009610617998987436,0.008868396282196045,-0.04297176003456116,-0.16143947839736939,0.8079292178153992,-0.015800926834344865,-0.2314252257347107,0.28310826420783999,-0.43302932381629946,-0.36103248596191409,0.04532678797841072,-0.2019326388835907,-0.1467629075050354,0.3658936023712158,0.20229004323482514,0.0623575896024704,0.302581250667572,-0.5909437537193298,0.15671096742153169,0.3419797420501709,0.4839656352996826,0.0001323298056377098,-0.2523759603500366,0.08011353760957718,0.37272700667381289,0.19164787232875825,-0.026858404278755189,-0.7313588261604309,0.0010658528190106154,0.4353358745574951,-0.22671359777450562,0.3575565218925476,-0.34442758560180666,0.4016023874282837]}