{"saveLayers":[14,10,10,4],"saveNeurons":[4.0,9.0,0.0,1000.0,6.0,9.0,0.0,1000.0,0.0,1000.0,1.0,0.0,1.0,1.0,1.0,-1.0,-1.0,1.0,-1.0,-1.0,-1.0,-1.0,1.0,-1.0,0.6502529382705689,0.8840053081512451,-0.7851789593696594,-0.005395302549004555,0.5503653287887573,0.23074719309806825,0.6600412726402283,-0.9210245013237,0.8636593818664551,-0.6987355947494507,0.026145627722144128,0.7642785310745239,0.08679615706205368,-0.42911460995674136],"saveWeights":[-0.49496233463287356,-0.6633756756782532,0.4230288565158844,1.7415118217468262,-0.5562437176704407,0.1828821748495102,0.07322397083044052,-0.006954830605536699,-0.001675765379332006,-0.007762249559164047,0.00010235750960418954,-0.213728129863739,-0.508380115032196,-0.46045899391174319,0.8842735290527344,0.158556267619133,-0.3871105909347534,-1.0401191711425782,0.0516081377863884,0.16655749082565309,-0.02435249090194702,-0.026616986840963365,0.05408283323049545,-0.026147620752453805,0.35329604148864748,-0.16588862240314485,-0.3643980026245117,-0.15330666303634644,0.06357711553573609,0.007007742300629616,-0.13209623098373414,-0.09115251898765564,-0.09545589983463288,0.0006375014199875295,-0.4992201328277588,-0.35465869307518008,-0.038091979920864108,-0.028630133718252183,0.17161355912685395,-0.6028035283088684,-0.10685188323259354,0.17242597043514253,0.05649125576019287,-0.7993279695510864,-0.3431110382080078,0.002573942532762885,-0.05392889305949211,-0.48822593688964846,-0.18231715261936189,0.27526476979255679,-0.054540812969207767,-0.18593166768550874,0.648996114730835,0.00016696509555913508,0.47613632678985598,0.254122257232666,0.0648224949836731,0.026305854320526124,-0.3804885447025299,-0.16535264253616334,0.41304755210876467,-0.44314706325531008,0.05226312205195427,0.16815613210201264,-0.07286578416824341,-0.6269393563270569,-0.00017463247058913112,-0.0014778897166252137,0.39275550842285159,-0.3402620553970337,-0.14877508580684663,0.013004857115447522,0.44707489013671877,-0.17287594079971314,-0.2294817566871643,0.2913397550582886,0.8829200863838196,0.008612113073468209,-0.0004561732057482004,-0.12088829278945923,-0.39474189281463625,0.002881570952013135,-0.12199504673480988,0.0318153090775013,-0.11553822457790375,-0.31353235244750979,0.32654672861099245,0.38367322087287905,0.3714582920074463,0.39416375756263735,-0.1725117564201355,-0.0448450930416584,0.3472481966018677,-0.6333929896354675,-0.07692179083824158,0.0032874192111194135,-0.029360564425587655,-0.009689933620393277,1.1930848360061646,-0.3699164390563965,-0.3758070468902588,-0.4194408655166626,-0.20258048176765443,-0.06918415427207947,0.1522660255432129,0.08184190839529038,0.049126796424388888,-0.5655238628387451,0.17717431485652924,-0.3812691569328308,0.24106687307357789,-0.028146592900156976,0.15596544742584229,0.03532004728913307,-0.36053502559661868,-0.3925132751464844,-0.4515831470489502,-0.011319397017359734,0.37858760356903078,0.18709038197994233,0.4475799798965454,0.22946904599666596,-0.24671052396297456,-0.09157009422779083,-0.4753282368183136,0.24836115539073945,0.027994154021143915,0.04436451196670532,-0.1793559193611145,0.06299906969070435,0.06294995546340943,-0.022414878010749818,0.12020982056856156,-0.1490819901227951,-0.12093180418014527,-0.1634683459997177,0.1780567765235901,0.7489431500434876,0.03967547416687012,-0.10952910035848618,0.27777349948883059,-0.17720825970172883,-0.09186965227127075,0.18257854878902436,0.17360199987888337,-0.0674048513174057,-0.1653507649898529,0.000048379399231635034,0.1425878405570984,0.15538619458675385,0.19504393637180329,-0.008484802208840847,-0.0011283850762993098,-0.0714188739657402,-0.7580106258392334,-0.28313112258911135,0.019775906577706338,0.01961229369044304,-0.001903496216982603,-0.2607172131538391,-0.1524527668952942,-0.0811261311173439,0.2067251205444336,-0.47958314418792727,-0.3266487121582031,-0.007152635604143143,0.452192097902298,0.08364152163267136,-0.15919309854507447,-0.060125917196273807,0.00811406597495079,0.2747355103492737,0.34120136499404909,0.11378858983516693,-0.37548190355300906,0.23339098691940309,-0.4758060574531555,0.07045477628707886,-0.08109122514724732,-0.022287843748927118,0.00010735388059401885,-0.04035194590687752,0.05010498687624931,0.144806370139122,0.39831316471099856,-0.1487141102552414,0.3654860258102417,-0.43069350719451907,0.39277946949005129,-0.275356650352478,-0.4074873924255371,0.2938164472579956,-0.011327515356242657,0.928037166595459,-0.45246225595474245,0.056442201137542728,0.2675268352031708,0.18837283551692964,0.054119765758514407,-0.0026775638107210399,0.16933026909828187,-0.5167551636695862,-0.40290045738220217,0.10131452977657318,-0.5366775393486023,0.32288599014282229,0.3873147964477539,0.2852053642272949,-0.01672743633389473,-0.07804229110479355,-0.27049732208251955,0.25785258412361147,0.0469101145863533,-0.009665530174970627,0.6972547173500061,0.27040380239486697,-0.27595722675323489,0.19906848669052125,-0.09118074178695679,0.028862126171588899,0.0006824004231020808,-0.09297019243240357,-0.09068512171506882,0.5833335518836975,-0.0237140953540802,0.0862683653831482,-0.49200713634490969,-0.04143365100026131,0.04259556531906128,-0.026417195796966554,0.0003087682998739183,-0.049678195267915729,0.32792091369628909,-0.3541700839996338,0.23274832963943482,0.002634742995724082,-0.36838483810424807,0.3057898283004761,-0.005886181723326445,0.054047226905822757,-0.012398339807987214,-0.12268073111772537,-0.809682309627533,-0.00411600386723876,-0.46137726306915285,-0.0967830941081047,-0.02249177172780037,0.2498636096715927,0.0691281333565712,0.04518502950668335,0.08766619861125946,-0.05160149559378624,-0.04189253970980644,-0.4080127775669098,0.5122641324996948,0.2860928773880005,-0.000496613618452102,-0.2809698283672333,0.34004366397857668,-0.08566572517156601,-0.1591739058494568,0.16407877206802369,-0.1404462456703186,-0.025882011279463769,-0.04622262716293335,0.47552189230918887,-0.031394511461257938,0.09384077787399292,-0.3469069004058838,-0.36856794357299807,0.008264944888651371,-0.1390748918056488,0.0015806915471330286,0.25529682636260989,-0.17523734271526338,0.07320408523082733,-0.8073567152023315,0.7562739849090576,-0.0000012275921790205758,-1.3887454271316529]}