{"saveLayers":[14,10,10,4],"saveNeurons":[5.999999046325684,7.0,0.0,1000.0,6.0,9.0,0.0,1000.0,0.0,1000.0,1.0,0.0,1.0,1.0,1.0,1.0,1.0,1.0,-1.0,1.0,-1.0,-1.0,0.9999983906745911,1.0,0.5859322547912598,0.7825143933296204,-0.2818785011768341,-0.5567580461502075,-0.31797468662261965,-0.16868166625499726,0.2088003307580948,-0.5044960975646973,0.7410168647766113,0.6937870383262634,-0.20705555379390717,0.8726180791854858,0.1446789652109146,-0.07226652652025223],"saveWeights":[-0.026728466153144838,0.47882556915283205,0.0021530501544475557,0.44196954369544985,0.14091821014881135,0.010545747354626656,0.456897497177124,-0.007177253253757954,0.6667007803916931,0.47236013412475588,-0.42519450187683108,0.056862834841012958,-0.0026170816272497179,0.814633309841156,0.030223548412322999,-0.2461547702550888,-0.3753068447113037,0.2633932828903198,0.005840340629220009,0.2801382541656494,-0.06644626706838608,-0.039084017276763919,-0.1823330521583557,-0.0013848633971065283,0.16780363023281098,0.26571133732795718,-0.22714173793792725,0.17276154458522798,0.06177430599927902,0.2871849834918976,0.18273037672042848,0.32347214221954348,0.023746728897094728,1.063410758972168,-0.5620870590209961,-0.2847234904766083,-0.048091210424900058,0.00018827106396201998,-0.44744402170181277,0.14216312766075135,0.00047878347686491907,1.2775086164474488,0.08649333566427231,0.14081250131130219,-0.3946990966796875,0.33696794509887698,0.2130497843027115,0.25754469633102419,0.11240072548389435,-0.005346930585801601,-0.0672697126865387,0.38084208965301516,0.539861798286438,-0.451162725687027,-0.27295729517936709,0.018820438534021379,-0.7552006244659424,-0.38133567571640017,-0.036424990743398669,-0.31187111139297488,0.004280960652977228,-0.4284425973892212,-0.3220932185649872,0.09944819658994675,-0.1458829939365387,-0.3229236602783203,-0.14263445138931275,0.43655693531036379,0.12319761514663696,0.32499292492866518,0.13838225603103639,-0.00532915722578764,-0.3196364641189575,0.001852548448368907,0.3850099742412567,0.7542941570281982,-1.0466575622558594,0.3897287845611572,0.15873287618160249,-0.2555212676525116,-0.34768903255462649,-0.03640800714492798,-0.05187858268618584,0.4750633239746094,0.06456508487462998,-0.4223436117172241,-0.1145525574684143,0.14266762137413026,-0.30630677938461306,0.2459242343902588,-0.3978712856769562,-0.003998611122369766,-0.3086733818054199,-0.5485880970954895,-0.1568908542394638,0.014165946282446385,0.26673585176467898,0.275272011756897,-0.018993787467479707,0.17769454419612885,-0.006718372460454702,-0.2636526823043823,0.4954468011856079,0.2107398360967636,-0.015394273214042187,-0.1079871729016304,-0.23754435777664185,-0.31212157011032107,-0.17883092164993287,0.1696973294019699,-0.018314167857170106,-0.8358117341995239,-0.010932385921478272,0.1553119271993637,-0.0034075903240591289,0.13987064361572267,0.34063318371772768,-0.24377129971981049,0.059034328907728198,-0.033369481563568118,0.45219218730926516,-0.1019267812371254,0.7622042298316956,-0.49919208884239199,0.8327109217643738,-0.022796737030148507,0.3665269613265991,1.1177823543548585,0.3631969690322876,-0.4467974901199341,-0.06114066019654274,-0.3050748109817505,-0.10097306966781616,0.8369334936141968,-0.09342312067747116,0.2669790983200073,-0.30951225757598879,0.7539136409759522,-0.005621679592877626,0.16846702992916108,0.31918907165527346,0.039514683187007907,-0.013839666731655598,0.026803065091371537,0.05400320142507553,-0.0028028942178934814,-0.05500612407922745,0.000006657214271399425,0.06057938560843468,0.2410091757774353,0.10918592661619187,0.11676327884197235,-0.2541213929653168,-0.8096681237220764,0.31005561351776125,0.322418212890625,-0.6184285283088684,-0.7943875193595886,0.46765291690826418,-0.0031668366864323618,0.4114903211593628,-1.5399948358535767,-0.24796336889266969,0.05497699975967407,-0.7963275909423828,-0.023279061540961267,-0.006513415370136499,0.19403867423534394,-0.02041349932551384,0.46665966510772707,0.25853440165519717,0.027465403079986573,-0.06650367379188538,-0.4197578728199005,-0.015133943408727646,-0.38832175731658938,0.40468108654022219,0.23317371308803559,0.37364715337753298,0.20953530073165894,-0.45276233553886416,0.362945556640625,-0.06602711230516434,-0.1289328932762146,-0.04687892273068428,-0.11520693451166153,-0.1666383147239685,-0.0024583342019468548,0.030615651980042459,-0.17599982023239137,0.06264311820268631,-0.25878238677978518,-0.18814975023269654,0.11354941129684448,0.35809579491615298,0.03531806915998459,0.14882607758045197,-0.04905933141708374,0.3179187774658203,0.20505641400814057,0.3663363456726074,0.18197843432426454,0.23479138314723969,-0.10828655958175659,0.2501017451286316,-0.3507055342197418,-0.18516919016838075,0.24695080518722535,0.3016827404499054,-0.10199636220932007,-0.4321025609970093,-0.10871949791908264,-0.28027570247650149,-0.1628604531288147,-0.005974518600851297,-0.0941418781876564,0.09418836981058121,0.021915972232818605,-0.6687711477279663,1.3016808032989503,-0.308652400970459,0.44683873653411868,-0.003800139995291829,0.21195262670516969,0.08760204166173935,0.07774236053228378,0.04346436262130737,-0.1500568687915802,0.02031966857612133,0.4893394708633423,0.33299219608306887,0.48734140396118166,0.08327619731426239,-0.0027596631553024055,-0.00287451408803463,0.3382366895675659,0.46368491649627688,0.017509043216705323,-0.11524491012096405,0.20969794690608979,0.007401915267109871,-0.18661409616470338,0.2802102565765381,-0.3879084885120392,-0.18509972095489503,0.015102088451385498,0.014839920215308667,0.24685893952846528,0.06292656809091568,-0.2693711519241333,-0.043684087693691257,0.061489641666412356,0.021273553371429445,-0.38189029693603518,-0.6329809427261353,-0.5543825626373291,-0.4624650478363037,0.2488476186990738,0.22925955057144166,1.2572174072265626,0.11237451434135437,0.059338923543691638,0.2069888710975647,0.0238188486546278,-0.4329034090042114,0.04415394738316536,0.32772985100746157,0.2994144856929779,0.06384879350662232,0.014610939659178257,-0.1538364738225937,-0.009841018356382847,0.014878521673381329,-0.12950986623764039,0.19251345098018647,0.3795788288116455,-0.010995704680681229,-0.033255185931921008,0.08019756525754929,0.012781276367604733]}