{"saveLayers":[10,10,10,4],"saveNeurons":[5.999999046325684,7.0,0.0,1000.0,6.0,9.0,0.0,1000.0,0.0,1000.0,-1.0,1.0,-1.0,1.0,-1.0,1.0,1.0,-1.0,-1.0,-1.0,0.15167126059532166,0.6776164770126343,-0.5493298768997192,0.833031415939331,0.01403755135834217,0.9012222290039063,0.6640559434890747,0.5227019190788269,-0.7814741134643555,-0.3212312161922455,-0.38417863845825198,0.660851001739502,0.5978004336357117,0.0074633448384702209],"saveWeights":[0.7172131538391113,-0.029526468366384507,0.06151551008224487,-0.05716937780380249,-0.2619728446006775,-0.15292303264141084,0.03489496931433678,-0.10331857204437256,-1.036583662033081,0.0022946903482079508,-0.4642747640609741,-0.18204563856124879,0.18861792981624604,-0.3167295455932617,0.06331712007522583,-0.015594184398651123,0.08731541782617569,0.4087507724761963,0.0325053334236145,0.5517456531524658,-0.08238516747951508,0.5067969560623169,-0.002831399440765381,-0.4568653404712677,-0.22584933042526246,0.29340171813964846,-0.40150001645088198,-0.015767276287078859,-0.1732766330242157,0.3238670825958252,0.473544716835022,-0.12845391035079957,0.029106803238391877,-0.008099054917693138,0.4830421209335327,-0.08088839054107666,0.05163828283548355,-0.02137754112482071,0.9150261282920837,0.6302364468574524,0.44916999340057375,-0.3878580331802368,0.39068445563316347,-0.41137993335723879,-0.3269394636154175,-0.37726059556007388,0.0020099433604627849,0.3184537887573242,0.09982341527938843,0.0021339880768209697,-0.35590457916259768,0.3427433967590332,-0.6762769818305969,-0.000036166991776553914,-0.7417932152748108,0.061358511447906497,-0.13204866647720338,-0.012022512033581734,-0.5384317636489868,0.2993423044681549,-0.50662761926651,-0.47049951553344729,0.07813327759504318,1.1299500465393067,0.2686290144920349,0.15079031884670258,-0.021232562139630319,0.3928595781326294,0.1260480284690857,1.0315332412719727,0.3343745470046997,0.038883525878190997,-0.21050627529621125,-0.2954127788543701,0.07569556683301926,-0.24238985776901246,-0.39462852478027346,-0.18477004766464234,-0.39919400215148928,0.12238627672195435,-0.18578702211380006,-0.2356467843055725,-0.019768817350268365,-0.49392741918563845,0.46641087532043459,-0.057592108845710757,0.20923924446105958,-0.5227019786834717,0.014718938618898392,0.09683667123317719,0.23343221843242646,-0.2351980358362198,0.018114592880010606,-0.03351796790957451,0.3855491876602173,0.6620520949363709,0.7396911382675171,-0.041943956166505817,-0.09171813726425171,-0.07100553810596466,-0.3202025890350342,-0.017916707322001458,-0.051875293254852298,-0.14422094821929933,-0.5517971515655518,0.02856101468205452,-0.02257627621293068,0.4600130319595337,0.09038299322128296,0.06447543203830719,-0.054226405918598178,-0.4696962833404541,-0.4562314748764038,0.7675777077674866,0.408561110496521,0.016612350940704347,-0.10426027327775955,-0.25811541080474856,-0.4513665437698364,0.1969185173511505,-0.03657887130975723,0.16841159760951997,0.24224841594696046,0.07999366521835327,0.007422560825943947,0.4123283624649048,-0.28077471256256106,0.3427117168903351,0.404636412858963,0.036939799785614017,-0.6242921948432922,0.38611507415771487,-0.01006709411740303,0.07827676087617874,-0.1502261757850647,0.25314247608184817,0.16075626015663148,0.6349359154701233,-0.48060715198516848,0.3105868399143219,0.03710351139307022,0.14327383041381837,-0.01747538149356842,-0.2680552005767822,0.28061631321907046,0.20554092526435853,0.021245919167995454,0.14774177968502046,-0.357023686170578,-0.0029955506324768068,-0.01394495740532875,0.13978718221187592,-0.18347269296646119,0.33901160955429079,-0.20062555372714997,0.3601629436016083,0.10423378646373749,0.14378483593463899,0.005234093405306339,-0.28647005558013918,0.06483884900808335,-0.24448162317276,-0.260501891374588,-0.011046377941966057,-0.017507432028651239,0.8910802006721497,-0.2569340467453003,-0.24878208339214326,0.04054049775004387,-0.000004133080437895842,-0.4456394910812378,-0.05594855546951294,-0.7461643218994141,-0.28139007091522219,-0.005133192520588636,0.14671875536441804,-0.07578116655349732,0.24495738744735719,0.07698791474103928,0.028540432453155519,0.15008807182312013,0.13189516961574555,-0.20514339208602906,-0.03257972374558449,-0.30357009172439577,0.03105396032333374,-0.014843890443444252,0.45625579357147219,0.0012380491243675352,1.065803050994873,-0.022557862102985383,0.03144162893295288,0.001986798830330372,-0.06517843902111054,0.2007758468389511,-0.18193000555038453,0.007290446199476719,-0.27188223600387576,0.11193829029798508,0.10438217967748642,0.0008811741136014462,0.4873545169830322,0.42809152603149416,-0.04698574170470238,-0.00721181882545352,-0.017978902906179429,-0.7571168541908264,0.27321648597717287,0.05094551667571068,0.13992327451705934,-0.005710188299417496,0.38492661714553835,-0.7210972309112549,-0.22222191095352174,1.2651569843292237,0.3507803678512573,0.3271491527557373,-0.6898764371871948,-0.3434399366378784,0.422038197517395,0.3828328847885132,-0.018788056448101999,-0.43639039993286135,0.025203587487339975,0.22333203256130219,-0.062349140644073489,-0.2028859704732895,0.43910765647888186,-0.25043678283691409,-0.45517635345458987,0.25995901226997378,-0.08165409415960312,-0.09747710078954697,-0.0164053775370121,0.8611671328544617,0.04912428930401802,-0.04274111986160278,-0.24204784631729127,-0.07295733690261841,-0.07785969972610474]}