{"saveLayers":[14,10,10,4],"saveNeurons":[4.0,9.0,0.0,1000.0,6.0,9.0,0.0,1000.0,0.0,1000.0,1.0,0.0,1.0,1.0,1.0,1.0,-1.0,-1.0,1.0,1.0,1.0,-1.0,-1.0,-1.0,-0.577102780342102,0.09258642047643662,0.7781165838241577,0.5925569534301758,-0.7360014319419861,-0.4863484799861908,0.8587163686752319,0.8283847570419312,0.8448591232299805,-0.4259783923625946,-0.02154516614973545,0.5228527188301086,-0.006811366882175207,-0.47080495953559878],"saveWeights":[-0.4935982823371887,-0.15421460568904878,0.6212975382804871,0.004766319412738085,-0.12249449640512467,-0.08709951490163803,-0.4817553758621216,0.4300670027732849,0.9521264433860779,-0.05093611776828766,-0.09895903617143631,-0.2983897924423218,0.2988413870334625,-0.3595014810562134,0.32543671131134035,0.04521222040057182,0.4058678150177002,0.08060433715581894,0.3519686460494995,0.17312157154083253,0.0823703408241272,-0.0035462845116853716,0.1350989192724228,-0.00001378090018988587,-0.06025880575180054,0.04535788297653198,-0.0003079972229897976,-0.05662185698747635,0.5704284906387329,0.02055673860013485,-0.10364347696304321,0.1610795110464096,-0.19902454316616059,0.14144735038280488,0.3005979061126709,-0.055374741554260257,-0.012685120105743409,-0.7976004481315613,0.7336412668228149,-0.055980198085308078,0.11742168664932251,-0.2888568639755249,-0.3357667326927185,-0.0030037760734558107,-0.28752052783966067,-0.44899964332580569,0.04310689866542816,-0.3572426736354828,-0.26390814781188967,0.21728260815143586,0.006369309034198523,0.08786816149950028,-0.23627562820911408,0.1269277185201645,0.8543571829795837,-0.38526198267936709,0.2314668744802475,-0.2285444736480713,-0.2638464868068695,0.2480783313512802,-0.5671058893203735,0.10843230783939362,0.03249954804778099,0.5291206240653992,0.11461657285690308,0.166384756565094,0.031109759584069253,-0.11119212955236435,-0.06967034935951233,0.07694698125123978,-0.19460955262184144,-0.10860088467597962,0.00026126738521270454,-0.013552858494222165,0.47793352603912356,-0.25956082344055178,-0.47952187061309817,1.9298228025436402,-0.19328323006629945,0.5185583829879761,-0.000017943639250006527,-1.33443021774292,0.017639391124248506,0.10607856512069702,-0.002092242008075118,-0.039836425334215167,-0.10574904084205628,-0.0013011210830882192,0.2513871192932129,0.051076702773571017,-0.20469491183757783,-0.07287481427192688,0.1331397145986557,0.5397953391075134,-0.3234976530075073,-0.24349738657474519,-0.022156594321131707,0.19099833071231843,-0.6708038449287415,-0.35709884762763979,0.3808192014694214,0.26022425293922427,-0.09883564710617066,0.031607840210199359,-0.585996687412262,0.005417142994701862,0.3596034049987793,-0.3920019865036011,-8.47047544993984e-7,-0.155276358127594,0.13904385268688203,0.6124090552330017,-0.12346547842025757,0.8277614116668701,0.48233163356781008,0.17231355607509614,0.14019595086574555,0.2808641195297241,0.44051873683929446,0.018235361203551294,0.022813433781266214,-0.9054810404777527,0.5039348006248474,-0.5415406227111816,0.09961730241775513,0.4927835464477539,0.7004350423812866,-0.0949476882815361,0.553280234336853,-0.14065152406692506,1.7811564207077027,0.08525453507900238,-0.32659947872161868,0.017199933528900148,-0.14890044927597047,-0.00039248118991963565,-0.04193629324436188,-0.4004315137863159,0.018757354468107225,0.1321084350347519,-0.08791083097457886,-0.08023744821548462,-0.031985871493816379,0.2303762137889862,-0.6863688230514526,0.06690053641796112,0.10302523523569107,-0.03380563110113144,-0.02762354537844658,-0.16344469785690309,0.3060377836227417,0.40435636043548586,-0.0013257295358926058,0.10547931492328644,-0.021365800872445108,-0.31535637378692629,-0.327642560005188,0.031204313039779664,0.020625999197363855,-0.20280684530735017,0.23515620827674867,0.48524463176727297,-0.06519067287445069,-0.23313044011592866,-0.6207973957061768,-0.48656249046325686,0.32559579610824587,-1.1456905603408814,-0.12347906827926636,0.46554866433143618,0.04775296151638031,-0.10839170217514038,0.10986752063035965,0.14865663647651673,0.08874782174825669,0.3063321113586426,0.2488776296377182,-0.1676393300294876,-0.09248150885105133,-0.09668201208114624,0.17417041957378388,-0.061804622411727908,0.0651211366057396,0.365119606256485,0.03771959990262985,-0.8283291459083557,0.29613423347473147,-0.14783397316932679,0.06067260354757309,0.2165091335773468,-0.1688736081123352,0.020555486902594568,0.31292128562927248,0.045185573399066928,0.28659141063690188,-0.3672581911087036,-0.01036788895726204,0.09717338532209397,-0.14486736059188844,-0.018499314785003663,0.11655360460281372,0.029509160667657853,-0.10571388155221939,-0.1765560507774353,-0.05209296941757202,1.2016611099243165,0.020693719387054445,0.1359596997499466,-0.11665290594100952,0.2908518314361572,1.4188449382781983,-0.4464975595474243,0.0730394721031189,-0.06622642278671265,-0.011163600720465184,-0.17442592978477479,-0.18852756917476655,-0.4771467447280884,-0.21158145368099214,0.09717882424592972,0.16746960580348969,-0.016092240810394288,0.3602008819580078,0.11854318529367447,-0.11123690754175186,-0.41762399673461916,1.0792856216430665,-0.11856207251548767,-0.4859383702278137,-0.4103538990020752,-0.43575942516326907,-0.2274780124425888,-0.418829083442688,-0.0138893723487854,0.23372811079025269,-0.000005409337973105721,-0.07258885353803635,-0.07721728086471558,0.000676103460136801,0.46212923526763918,-0.3688262701034546,0.11927121877670288,-0.3135497570037842,-0.0000034445986329956215,0.5183150768280029,0.06728129833936691,-0.16476672887802125,0.4321993589401245,-0.0207742340862751,-0.5017927289009094,0.042882535606622699,0.4834778308868408,0.14734941720962525,0.6612244844436646,-0.02952321246266365,0.027350718155503274,0.0018459411803632975,-0.06219387799501419,0.07420249283313751,-0.07650906592607498,-0.21391038596630097,-0.2674524784088135,0.0985589250922203,0.26119956374168398,0.19914637506008149,0.05296514183282852,-0.6396746039390564,0.12313517928123474,0.14870882034301759,-0.3686244487762451,0.5650513768196106,-0.022268783301115037,-0.001750469789840281,0.000325527013046667,-0.021877190098166467,-0.16839216649532319,0.07115042209625244,-0.22619110345840455,0.15408366918563844,0.665956437587738]}