{"saveLayers":[14,10,10,4],"saveNeurons":[5.999999046325684,7.0,0.0,1000.0,6.0,9.0,0.0,1000.0,0.0,1000.0,1.0,0.0,1.0,1.0,1.0,1.0,-1.0,-1.0,-1.0,-1.0,-1.0,-1.0,-1.0,1.0,-0.5717976093292236,0.7914534211158752,-0.5537617802619934,0.5893267393112183,-0.8762332201004028,0.5271859765052795,-0.7864155769348145,0.205801323056221,-0.8815813064575195,-0.5567259192466736,-0.3290485739707947,0.5463864207267761,0.05809592083096504,-0.13665322959423066],"saveWeights":[-0.005511840805411339,-0.5699158310890198,-0.294070839881897,0.4352332353591919,-0.46585485339164736,0.35057762265205386,0.1998983919620514,0.4002148509025574,-0.040052033960819247,-0.16778922080993653,0.14021234214305879,-0.13166771829128266,0.19774048030376435,-0.21036523580551148,0.3667644262313843,0.028909822925925256,-0.06909139454364777,0.3341129422187805,0.16705167293548585,-0.12272237241268158,0.15220321714878083,0.2609405219554901,0.38811373710632326,0.10220259428024292,-0.8192421197891235,-0.4406890869140625,0.022204682230949403,0.09018907696008682,0.39912092685699465,-0.3409770727157593,-0.10875187069177628,-0.4995828866958618,0.1317368596792221,0.2938268184661865,-0.0813940167427063,-0.22100049257278443,0.5396624207496643,0.19743095338344575,-0.000027518672141013667,-0.3754974603652954,-0.04856684431433678,0.4222879707813263,-0.7278341054916382,0.36024609208106997,-0.17334450781345368,-0.4472696781158447,0.1344022899866104,-0.04541580751538277,-0.2442108392715454,0.07974954694509506,0.13113434612751008,0.2756856083869934,0.5993883609771729,-0.2723125219345093,0.040011197328567508,-0.3143221139907837,0.19935904443264008,-0.06612040102481842,0.008460698649287224,-0.4413585662841797,0.0879652127623558,-0.16526110470294953,0.33131447434425356,0.24117790162563325,0.0065099396742880348,-0.16707952320575715,-0.1910197138786316,0.29885274171829226,-0.26906871795654299,1.7056208848953248,-0.1926729530096054,-0.19761760532855988,0.24634325504302979,0.08693557977676392,0.09567863494157791,-0.3859403431415558,-0.05055372416973114,-1.4498114585876465,-0.4792858362197876,-0.11332076787948609,0.24380622804164887,0.11287695169448853,0.008943045511841774,-0.022189557552337648,0.010375440120697022,0.21146471798419953,0.2692279815673828,0.00028226987342350185,0.03507840260863304,-0.0017367081018164754,-0.00262743909843266,0.0017050232272595168,0.08484441041946411,-0.4034980535507202,-0.10764215886592865,0.21924030780792237,0.5308404564857483,-0.17322327196598054,0.24018219113349915,-0.08879274129867554,-0.42612290382385256,-0.17235153913497926,0.2621656656265259,-0.7023432850837708,0.31134045124053957,-0.1609487235546112,-0.06701985746622086,0.24425682425498963,-0.15271590650081635,-0.002357141114771366,0.00706222839653492,-0.3514072299003601,-0.2483561635017395,-0.04631628841161728,-0.03129095956683159,0.01865394040942192,-0.7226924300193787,-0.39705002307891848,-0.4575474262237549,-0.05119572579860687,0.005002673715353012,-0.3178178071975708,0.1283738911151886,-0.35044464468955996,-0.29934409260749819,-0.4550694227218628,0.7065189480781555,0.19195139408111573,-0.48227357864379885,0.4257146120071411,0.12390698492527008,-0.06166607141494751,-0.1508142501115799,-0.4639087915420532,-0.002457972848787904,0.3118377923965454,0.0656411200761795,0.15650825202465058,-0.213502436876297,-0.022813640534877778,-0.45149409770965578,0.003196870442479849,-0.036576561629772189,0.00011985921446466818,-0.1672409623861313,-0.12092290073633194,0.21648597717285157,0.7667400240898132,-0.07642465084791184,0.38028836250305178,-0.31072142720222475,0.004648808389902115,-0.18687444925308228,0.6888154149055481,-0.02480115182697773,-0.881177544593811,-1.479431390762329,-0.1471821367740631,0.0001980940724024549,-0.6490704417228699,-0.018167715519666673,-0.4004305601119995,0.15084682404994965,-0.03756408020853996,-0.030710741877555848,-0.14842897653579713,0.039205510169267657,-0.21282464265823365,-0.05090366303920746,-0.49557217955589297,-0.0029197537805885078,1.0586657524108887,-0.004106712993234396,-0.02077406644821167,0.22204793989658357,-0.2653663158416748,0.3473951518535614,0.048702701926231387,0.007487833499908447,-0.04372544214129448,-0.4469536542892456,-0.4281574487686157,0.025825373828411104,-0.37235569953918459,0.37882423400878909,-0.01887504570186138,0.2242508977651596,-0.012969672679901123,0.2335556596517563,-0.025944385677576066,-0.03355365991592407,0.12935374677181245,0.04851910099387169,-0.499361127614975,-0.27727770805358889,-0.28388044238090517,0.04090743884444237,0.43040403723716738,0.027658119797706605,-0.022590721026062967,-0.36392465233802798,-0.7177891731262207,-0.36406803131103518,-0.0008016423089429736,0.6973366737365723,0.12570123374462129,-0.08656090497970581,-0.5716565847396851,0.004140037577599287,-0.17616266012191773,0.12262528389692307,0.4347403049468994,0.002009506104514003,1.1021238565444947,-0.4523465633392334,-0.00466429628431797,0.062085382640361789,0.38795626163482668,-0.7273347973823547,0.021246744319796563,-0.21326133608818055,-0.10165707767009735,0.04370446130633354,-0.1824985146522522,0.4209851622581482,-0.24787424504756928,-0.0033931375946849586,0.7778952717781067,-0.024677369743585588,-0.283760666847229,-0.09701637923717499,-0.3579413890838623,0.008481296710669995,0.18697534501552583,-0.10984933376312256,0.31939876079559328,-0.2820589542388916,0.3463030755519867,0.11453267186880112,0.4106646776199341,0.17790091037750245,0.07287472486495972,0.7309477925300598,0.1586853712797165,-0.14679677784442902,0.09945213049650192,0.0020027747377753259,0.2754216194152832,0.012208572588860989,0.3805524408817291,-0.2839250862598419,-0.48869162797927859,-0.4626380205154419,0.002267734846100211,0.44841468334198,0.18236202001571656,-1.018202304840088,-0.06018282473087311,-0.09021598100662232,-0.016195576637983323,-0.18532532453536988,-0.1584499478340149,0.4362046718597412,0.2730785608291626,0.138214573264122,0.08380144089460373,-0.2606099843978882,0.06196463480591774,-0.2159518450498581,0.31062042713165285,0.00030048543703742325,0.016351796686649324,0.0490676574409008,0.21115611493587495,0.044453851878643039,-0.30216121673583987,0.33982980251312258,0.058413803577423099,-0.11922354996204376,-0.18108755350112916]}