{"saveLayers":[14,10,10,4],"saveNeurons":[5.999999046325684,7.0,0.0,1000.0,6.0,9.0,0.0,1000.0,0.0,1000.0,1.0,0.0,1.0,1.0,-1.0,1.0,-1.0,-1.0,-1.0,1.0,1.0,-1.0,-1.0,1.0,0.7544066309928894,-0.07326409965753555,-0.8343613743782044,0.8058132529258728,-0.04490640386939049,-0.817165732383728,-0.015395792201161385,-0.6974238157272339,-0.29363030195236208,-0.3570866584777832,-0.8190145492553711,0.5162027478218079,0.10035178065299988,-0.07735999673604965],"saveWeights":[-0.005140301771461964,-0.1321602761745453,0.048068296164274219,-0.09370309114456177,0.4949190616607666,-0.2808781862258911,-0.1897069364786148,-0.006835905835032463,0.23166760802268983,0.05989564210176468,0.07957233488559723,-0.05664902925491333,0.4444641172885895,-0.19704920053482057,-0.019725339487195016,0.4590721130371094,0.47730299830436709,-0.00007371326501015574,0.08331102132797241,-0.0029301047325134279,-0.008694324642419815,0.11513971537351608,-0.19950461387634278,-0.03034072183072567,0.1427851766347885,-0.16030341386795045,-0.13344508409500123,-0.07403260469436646,0.19316907227039338,0.07782751321792603,0.28810441493988039,-0.021146006882190706,0.46574854850769045,0.3900942802429199,-0.5142894983291626,0.09415952116250992,0.05627317354083061,-0.15137583017349244,0.05050453543663025,0.8812345862388611,-0.1346847414970398,-0.6040861010551453,-0.47359299659729006,0.5564413666725159,-0.11524423211812973,-0.17443615198135377,0.3342224955558777,-0.14633958041667939,0.3630293607711792,-0.022151190787553788,1.1329121589660645,-0.438437819480896,-0.03708069771528244,-0.4126538038253784,0.03148176893591881,-0.018354952335357667,0.39114344120025637,-0.21963530778884889,-0.36733174324035647,0.056370556354522708,-0.011035777628421784,-0.12162549048662186,-0.034641578793525699,0.12466759234666825,-0.003584539983421564,-0.296993613243103,-0.25954189896583559,0.1656259298324585,0.03512036055326462,0.516918957233429,0.008750022388994694,0.7663212418556213,-0.10801833868026734,-0.4385368824005127,-0.5011057257652283,-0.37163054943084719,-0.2864221930503845,1.1755479574203492,-0.2642132639884949,0.42700839042663576,0.24464784562587739,-0.20868869125843049,0.17324380576610566,-0.3939093053340912,-0.14514140784740449,-0.4429210424423218,-0.0019210618920624257,0.14576323330402375,-0.12975922226905824,0.10606026649475098,-0.760737419128418,0.4406576156616211,0.19291076064109803,-0.15215693414211274,-0.26465165615081789,0.11928373575210571,0.0004684208252001554,0.004970367532223463,-0.000382421538233757,-0.3100646734237671,0.07542093098163605,-0.18098686635494233,-0.02375364489853382,0.1404040902853012,-0.0016213145572692156,0.02598590776324272,-0.06614837050437927,-0.2845521569252014,0.00012425362365320325,-0.01807194948196411,0.3983253240585327,-0.4329451322555542,-0.38655591011047366,0.06901925802230835,0.04256108030676842,-0.33702123165130618,-0.4877007007598877,0.01997847482562065,-0.02620253898203373,0.1339649260044098,0.029806554317474366,0.06878276914358139,1.4749120473861695,0.04696013405919075,-0.1416640281677246,0.8139488697052002,0.07747872918844223,-0.12557469308376313,0.24080048501491548,-0.08966312557458878,-1.0306344032287598,-0.1078224778175354,-0.1625153124332428,0.41093719005584719,-0.015554700046777726,-0.18018272519111634,-0.6515166163444519,-1.1020703315734864,0.04187291860580444,1.7233695983886719,0.0994841456413269,0.3978539705276489,-0.11040931940078736,0.006207366473972797,0.2073667049407959,-0.1361476331949234,0.3357532024383545,-0.5573068261146545,0.32700982689857485,0.35799670219421389,0.5272795557975769,-0.0041103120893239979,-0.2623277008533478,-0.41731584072113039,0.051405519247055057,-0.026307566091418268,0.038395777344703677,0.0027547008357942106,-0.32235392928123476,-0.5019311904907227,-0.7288836240768433,-0.2611800730228424,0.8055863380432129,-0.18005555868148805,0.20038120448589326,-0.013317640870809555,0.013175821863114834,0.672994077205658,0.423977255821228,0.2529999911785126,-0.1751207709312439,0.08655065298080445,-0.05697755888104439,0.06292694807052612,-0.3679683208465576,-0.043640635907649997,0.02896455116569996,-0.3417729139328003,0.0181305930018425,0.18231628835201264,0.6055493950843811,0.15740953385829926,-0.4214702844619751,-0.03700226545333862,0.0025041496846824886,-0.21791094541549684,-0.03328292816877365,0.183756023645401,0.030795732513070108,0.41298043727874758,0.03699996694922447,-0.2518596649169922,-0.07986181974411011,1.4717485904693604,0.5172834396362305,-0.8419421911239624,0.3856428265571594,0.04154594987630844,-1.0465741157531739,0.5010747313499451,-0.04998765140771866,0.011354435235261917,-0.45913970470428469,-0.038396693766117099,-0.0754963755607605,-0.4970185458660126,-0.18887180089950562,0.06562837213277817,-0.09659534692764282,0.005151506047695875,0.011487714946269989,0.4042304456233978,0.030069192871451379,0.012262780219316483,-0.09643100202083588,0.048572104424238208,-1.1049822568893433,0.3319486379623413,0.7210165858268738,0.8002668619155884,-0.11552686244249344,0.16914241015911103,-0.017884833738207818,-0.04704146832227707,0.007777332328259945,-0.2061099410057068,0.40357258915901186,0.3760073184967041,0.4597817659378052,-0.006026311777532101,-0.0018183102365583182,0.029403317719697954,-0.3981276750564575,0.7001373767852783,-0.1653033196926117,0.00925024040043354,-0.2762637436389923,0.13666096329689027,0.310977578163147,0.4465939998626709,1.2641754150390626,0.0035644229501485826,2.6291048526763918,-0.0005603998433798552,0.0038738122675567867,0.16330435872077943,0.004159386269748211,-0.28678759932518008,-0.0029017876368016006,-0.05499281734228134,0.21532593667507173,-0.14357787370681764,-0.3286398649215698,0.10340708494186402,0.15554800629615785,-0.02660897560417652,-0.25405699014663699,0.1406032145023346,-0.47428905963897707,0.0538252592086792,0.009271344169974327,0.07852146029472351,-0.25445833802223208,0.0014042258262634278,-0.2538869380950928,0.07733398675918579,0.38438940048217776,-0.17088313400745393,-0.00007837829616619274,0.4914271831512451,-0.14610786736011506,-0.0015645097009837628,-0.012599321082234383,-0.1916942000389099,-0.2658616304397583,-0.05890840291976929,-0.005784866865724325,-0.050086915493011478,-0.19147098064422608,-0.07066410034894943]}