{"saveLayers":[11,10,10,2],"saveNeurons":[10.0,11.0,8.0,13.0,11.0,11.0,0.0,0.0,0.0,11.0,89.0,-1.0,1.0,-0.9999999403953552,1.0,-1.0,-1.0,-1.0,-1.0,1.0,-1.0,0.1605055034160614,-0.8375263214111328,-0.927821159362793,0.8203731179237366,0.46503934264183047,-0.12728625535964967,-0.06074051558971405,0.6766064167022705,0.35242295265197756,0.36908987164497378,0.5925368070602417,0.34764763712882998],"saveWeights":[0.024624571204185487,0.1155732274055481,-0.011273999698460102,-0.24807961285114289,0.21034355461597444,0.3959927558898926,-0.1943238079547882,0.1427859663963318,-0.2669501304626465,0.056848108768463138,-0.4823431968688965,-0.37024998664855959,-0.354678750038147,0.007253493648022413,0.03219778090715408,0.3829582929611206,0.18510960042476655,-0.45057058334350588,0.49479246139526369,0.43298640847206118,0.3096044063568115,0.4735208749771118,-0.07264956086874008,-0.4008752405643463,0.08823398500680924,0.01106027327477932,-0.023363769054412843,0.011584468185901642,0.29984283447265627,-0.45493146777153017,0.008409074507653714,0.2722893953323364,-0.08312080055475235,0.06463271379470825,0.30681660771369936,0.04328552633523941,0.4984217882156372,-0.03427198529243469,0.46817076206207278,-0.0346803143620491,-0.014625727199018002,0.2909688949584961,0.2422822117805481,0.23680932819843293,-0.36005711555480959,-0.18021054565906526,-0.20491845905780793,0.2712099552154541,-0.49802350997924807,0.4021075963973999,0.297879695892334,0.32616114616394045,0.06538161635398865,-0.05219521373510361,-0.3460104465484619,-0.7153420448303223,0.4697134494781494,-0.11748351156711579,-0.029967617243528367,-0.44026994705200198,0.5285179615020752,0.18761423230171204,-0.2350451648235321,0.027067238464951516,0.351023405790329,-0.34680676460266116,0.05057116597890854,0.20485959947109223,-0.36814260482788088,-0.904644250869751,-0.03956931456923485,-0.026537077501416208,-0.27219438552856448,0.04205438867211342,-0.03963357210159302,-0.2449175864458084,-0.3888290524482727,0.03835946321487427,0.36432114243507388,-0.4349912405014038,0.3692901134490967,-0.14331412315368653,-0.4487276077270508,0.2877604067325592,0.08054310828447342,-0.833840012550354,-0.5885604619979858,-0.0421496219933033,0.17862795293331147,0.46243786811828616,-0.37888431549072268,0.03056877851486206,-0.24213777482509614,0.17729634046554566,0.11019697040319443,-0.22429083287715913,0.44848525524139407,0.8199423551559448,0.012428104877471924,-0.16516803205013276,-0.16993838548660279,0.016582395881414415,0.2123708575963974,0.019629085436463357,-0.20314572751522065,-0.07420128583908081,0.10819342732429505,0.009468711912631989,0.3586270809173584,-0.3880164623260498,-0.09148317575454712,0.14467884600162507,-0.08154135942459107,-0.008737742900848389,0.4362572431564331,-0.09825795888900757,-0.03476930037140846,-0.04160350561141968,0.17601227760314942,0.06144589185714722,0.3074251413345337,-0.11475121974945069,0.4858919382095337,-0.013186106458306313,0.032348137348890308,-0.14936576783657075,-0.03617527708411217,0.4418138265609741,0.08520565927028656,0.08816009759902954,0.49166154861450198,0.0076479315757751469,0.2493850588798523,-0.2336140275001526,0.2210613340139389,0.058660686016082767,0.33060240745544436,-0.24399083852767945,0.008713907562196255,0.3178670406341553,0.048348795622587207,0.759127140045166,0.02463153935968876,0.30821657180786135,-0.27249130606651308,0.24231046438217164,-0.4059579372406006,-0.0624704509973526,-0.33850860595703127,-0.00349348783493042,-0.021394014358520509,-0.27586913108825686,0.24015292525291444,-0.229529470205307,-0.33095288276672366,0.013277901336550713,-0.2230048030614853,0.0910373330116272,0.385265588760376,-0.3929714858531952,0.0574076771736145,-0.11594116687774658,-0.28738531470298769,0.5663380026817322,-0.21432408690452577,0.3906513452529907,0.4655325412750244,0.004769027233123779,-0.13056398928165437,0.031162042170763017,0.21308305859565736,0.3869692087173462,0.48036181926727297,-0.11240088194608689,0.0027859904803335668,0.03250361606478691,-0.15724515914916993,-0.28801441192626955,0.013011529110372067,0.06492036581039429,0.03577500581741333,0.3079524040222168,-0.07647770643234253,0.16567955911159516,-0.14464443922042848,0.13134346902370454,-0.004281278699636459,-0.28071463108062746,0.02458544261753559,0.014388548210263253,0.018582947552204133,-0.043608129024505618,0.36569082736968996,-0.032908618450164798,-0.4371509552001953,-0.24206501245498658,0.38673725724220278,-0.046553026884794238,0.21689258515834809,-0.27307382225990298,0.3080456256866455,0.4727933704853058,-0.352799654006958,-0.565823495388031,-0.01020340621471405,0.10176879912614823,0.2295563668012619,-0.12056423723697663,0.037156227976083758,-0.5990464687347412,0.030996501445770265,0.002290667500346899,-0.10441131144762039,0.1792023777961731,0.05580896884202957,-0.24088232219219209,-0.1260809302330017,0.3690376877784729,-0.13755808770656587,0.4582481384277344,0.17763668298721314,-0.0957898497581482,-0.086800217628479,0.2408042997121811,-0.15001212060451508,-0.5989528298377991,-0.05366650968790054,0.08339541405439377,-0.18897444009780885,-0.06399710476398468]}