{"saveLayers":[11,10,10,2],"saveNeurons":[10.0,11.0,6.0,11.0,11.0,11.0,0.0,0.0,0.0,11.0,93.0,-1.0,1.0,-1.0,0.9999985694885254,-1.0,0.9948717355728149,-0.9999999403953552,1.0,-0.9999957084655762,1.0,-0.014114604331552983,-0.6786863803863525,0.8129760026931763,0.823689877986908,-0.9274764060974121,-0.42484551668167117,-0.8113378882408142,0.03969044238328934,0.9951913356781006,0.8460114002227783,0.9705882668495178,-0.9229488372802734],"saveWeights":[-0.5655376315116882,-0.25591182708740237,0.5430675745010376,-1.2972290515899659,0.09176450967788696,0.018200259655714036,-0.22352582216262818,-0.044490013271570209,-0.016584115102887155,-3.530411720275879,-0.01107853651046753,-0.29042863845825198,-0.0004176394722890109,-0.13991214334964753,0.27658089995384219,-0.09456402063369751,0.365913987159729,1.0412969589233399,-0.37368321418762209,-0.4074653089046478,0.27702605724334719,0.39327502250671389,-0.28350579738616946,-0.7333058714866638,-0.012483298778533936,0.1333945393562317,0.06464464217424393,0.05635756254196167,0.38518404960632326,-0.5279098749160767,-0.11733454465866089,-0.32702094316482546,-0.10114222764968872,0.020301222801208497,0.43437767028808596,-0.12573915719985963,0.49775707721710207,0.07197132706642151,-0.3199644088745117,-0.00014751951675862074,0.7428900599479675,0.33906519412994387,-0.03910413756966591,0.005662418901920319,0.019366851076483728,-0.14696580171585084,-0.06457006186246872,0.2259717583656311,-0.8396404981613159,0.21273471415042878,-0.07390088587999344,0.09271623194217682,0.0329909473657608,-0.12484955787658692,-0.07001101970672608,0.7784029841423035,-0.006879100576043129,-0.13140776753425599,0.12343159317970276,0.0019742846488952638,0.013726129196584225,-0.09576886892318726,0.2386963665485382,-0.17641010880470277,0.44133996963500979,-0.11100345849990845,-0.15815065801143647,0.30927538871765139,-0.4368245005607605,-0.000005918374881730415,-0.36916622519493105,-0.19724150002002717,-0.09021905809640885,-0.4399883449077606,-0.22756999731063844,-0.12535041570663453,-0.003278265940025449,0.4357495903968811,-0.0000030207918371161215,-0.4027225971221924,0.061520516872406009,0.18856070935726167,0.391508013010025,1.1170680522918702,0.07136968523263931,-0.4249982237815857,-0.23333722352981568,0.10681694746017456,0.41056832671165469,0.04860387742519379,-0.047389693558216098,-0.000040178380004363135,-0.1254292130470276,-0.03152577206492424,-0.2732506990432739,-0.3908258080482483,-1.4378974437713624,-0.25686702132225039,-0.06802333891391754,0.06721144914627075,-0.22589917480945588,0.01274911593645811,0.3588106334209442,0.04705903306603432,-0.3338377773761749,0.2874859571456909,-0.003916348330676556,-0.0008621934684924781,-0.1269683688879013,0.47556519508361819,-4.910075404040981e-7,0.3772355616092682,-0.2994975447654724,0.026535257697105409,-0.008660748600959778,0.43882811069488528,0.07918578386306763,-0.43455493450164797,0.3413815498352051,-0.30750203132629397,-0.20094794034957887,-0.23980005085468293,0.01735636405646801,-0.5856744050979614,-0.052544619888067248,-0.6589367389678955,-0.19183920323848725,0.45761406421661379,-0.002211271785199642,-0.2334442138671875,-0.0011732979910448194,0.40944552421569826,-0.10742324590682984,-0.320902943611145,-0.3217737674713135,0.08070522546768189,-0.4429173469543457,0.11830176413059235,0.018405579030513765,-0.00627417117357254,-0.18375733494758607,-0.3688047230243683,-0.17818120121955872,-0.040367066860198978,-0.7194400429725647,0.16709476709365846,0.0010100200306624175,0.28302204608917239,-0.047548774629831317,0.00018100668967235833,-0.03141552209854126,-0.4439692497253418,0.9374580383300781,0.28921425342559817,0.3150271475315094,0.0838807225227356,-0.428273469209671,-0.5529221892356873,0.180387943983078,-0.042616959661245349,-0.5171452760696411,-0.0536884143948555,-0.04567490145564079,-0.006168219726532698,0.15056897699832917,-0.12351047247648239,-0.09974371641874314,0.18615947663784028,0.4086371064186096,-0.5603753924369812,0.00618072459474206,-0.3915005922317505,-0.12611934542655946,-0.25292491912841799,0.6377813220024109,-0.0004313316894695163,0.25390446186065676,0.02104480192065239,0.04574781656265259,0.31037259101867678,0.11873626708984375,-0.3972439467906952,-0.022396095097064973,-0.05841037631034851,-0.025232719257473947,-0.09225447475910187,-0.21077579259872437,-0.001856437069363892,-0.46807312965393069,-0.01873607560992241,0.03051513433456421,0.23891626298427583,0.4610788822174072,0.01122797280550003,-0.45442724227905276,0.07913105189800263,0.09168058633804321,0.3176785707473755,-0.18563781678676606,2.3107006549835207,0.26490914821624758,0.31482934951782229,-0.16282452642917634,0.16300521790981294,0.0022591270972043277,0.4439713954925537,-0.006593836005777121,-0.004156605806201696,-0.001260221004486084,0.4230692386627197,0.19835366308689118,-0.4863395690917969,-0.0010120796505361796,0.1689988225698471,-0.26690393686294558,-0.11610034108161926,-0.7779868245124817,0.08922939002513886,0.039868827909231189,0.7865068316459656,-0.93172287940979,0.09860334545373917,0.03117746114730835,-2.6762807369232179,-0.4975681006908417,0.01068070251494646,0.0970781072974205,0.018021859228610994,0.36751267313957217,-0.14227543771266938]}