{"saveLayers":[14,10,10,4],"saveNeurons":[5.999999046325684,7.0,0.0,1000.0,6.0,9.0,0.0,1000.0,0.0,1000.0,1.0,0.0,1.0,1.0,-1.0,1.0,-1.0,1.0,-1.0,1.0,1.0,1.0,1.0,1.0,0.405040979385376,-0.7784133553504944,-0.15537478029727937,-0.8638581037521362,-0.919922947883606,-0.7863640189170837,0.8926892876625061,0.9127647280693054,-0.9994890689849854,0.944923996925354,0.2142993062734604,0.6743783354759216,-0.23311500251293183,-0.4425116777420044],"saveWeights":[-0.2820765972137451,0.006285868585109711,-0.04645109176635742,-0.2946450710296631,-0.0035716367419809105,-0.22438392043113709,0.14882682263851167,-0.43703559041023257,-0.244831383228302,-0.006995499134063721,0.0007559263613075018,-0.44426441192626955,0.1153746172785759,0.15982502698898316,-0.24628101289272309,0.0011350326240062714,0.0003533973067533225,-0.1606692373752594,-0.1628815233707428,0.09316553920507431,-0.42956164479255679,0.21660052239894868,0.0543944425880909,0.14204047620296479,-0.2935366928577423,0.4568251669406891,-0.15580032765865327,-0.06640726327896118,-0.22608083486557008,0.23722988367080689,-0.020474476739764215,0.030616631731390954,-0.06500975042581558,-0.2888040840625763,-0.1428348869085312,-0.385469913482666,-0.0075632138177752499,-0.12737716734409333,-0.23358912765979768,-0.8877682685852051,-0.31722307205200198,-0.5609582662582398,-0.01191524788737297,0.16477061808109284,-0.31740427017211916,0.003403317416086793,-0.4540630578994751,-0.0009671802399680018,0.36416903138160708,-0.0642351433634758,0.014131619594991207,0.3789405822753906,-0.011488504707813263,-0.13577868044376374,-0.06252516061067581,0.3113299608230591,-0.6302727460861206,-0.0009242923115380108,-0.18773704767227174,0.4762246608734131,-0.07301750779151917,-0.45394593477249148,-0.3049788475036621,-0.08170146495103836,-0.17979156970977784,-0.4858008623123169,0.014070412144064904,0.15330612659454347,0.12009672820568085,-0.42072808742523196,-0.2217368483543396,-0.17507436871528626,0.16064465045928956,0.002145369304344058,-0.36101245880126955,-0.9582321047782898,0.22141586244106294,0.531097948551178,-0.2961404323577881,0.36371052265167239,0.29913610219955447,-0.08539514243602753,0.06100405007600784,-0.3940281867980957,-0.454079270362854,0.04972773790359497,0.49091577529907229,-0.03191822022199631,0.16368506848812104,0.14685136079788209,-0.1059432104229927,-0.0004971168818883598,-0.22951310873031617,0.4314294457435608,0.08488722145557404,0.2849602699279785,0.11148852854967118,-0.0019690680783241989,0.32058656215667727,-0.618053138256073,0.7885730862617493,1.4258520603179932,-0.1332736611366272,0.42664942145347597,-0.5825704336166382,0.1229591965675354,0.059042658656835559,0.02174452692270279,0.7573450207710266,-0.22990797460079194,-0.21426254510879517,0.17921572923660279,0.0015040583675727249,0.08029419183731079,-0.05242585018277168,0.027897445484995843,0.1328534036874771,-0.23371155560016633,-0.005992490332573652,0.07590323686599732,-0.4902474880218506,0.175898015499115,0.4420466423034668,0.0839691236615181,-0.06764181703329086,0.33951613306999209,-0.3907056748867035,-0.2941368520259857,0.1859787106513977,0.15366323292255402,-0.044950518757104877,0.020369594916701318,-0.015081183053553105,0.42064225673675539,-0.09401361644268036,-0.4145944118499756,0.5104188919067383,0.1263922154903412,-0.4161289930343628,0.030755748972296716,-0.2592189610004425,0.013764288276433945,-0.09264199435710907,-0.33286237716674807,0.2617943584918976,-0.12443609535694123,0.476749062538147,-0.2993401288986206,0.014512398280203343,0.5912108421325684,0.09967511147260666,0.12776094675064088,0.12511001527309419,0.16402240097522736,0.12792260944843293,-0.48919999599456789,-0.3286830186843872,-0.3829735219478607,-0.05857044458389282,0.2790198028087616,-0.414348304271698,0.08683422952890396,0.8798859119415283,-0.2119712233543396,-0.0778099074959755,0.25085708498954775,0.0036426219157874586,0.07355254888534546,-0.03621230646967888,0.0643811821937561,0.43352141976356509,-0.7203091382980347,-0.0508388876914978,-0.10579429566860199,0.07877447456121445,-0.00010464873048476875,-0.164373978972435,0.6036521196365356,-0.0614817813038826,-0.39848458766937258,-0.14974962174892426,-0.41177141666412356,0.3993114233016968,-0.46970200538635256,-0.13233067095279694,0.007882609032094479,-0.32585442066192629,0.17973527312278748,0.022732703015208246,-0.4743173122406006,0.39570343494415285,-0.20568497478961945,0.4269198179244995,-0.22280558943748475,0.000026793200959218666,0.22688089311122895,0.14231780171394349,-0.18059352040290833,0.03377163037657738,-0.03306812047958374,-0.07536166906356812,-0.0261879563331604,-0.3483140468597412,0.01937805861234665,-0.6668826341629028,-0.025787029415369035,0.41489076614379885,0.009193002246320248,-0.020697057247161866,-0.026335299015045167,0.017299234867095948,0.22834955155849458,-0.0208701491355896,-0.0011747441021725536,0.04227248206734657,0.4240126311779022,0.27930712699890139,0.28544843196868899,0.335837721824646,0.030768927186727525,-0.25678718090057375,-0.4587417542934418,0.19711829721927644,-1.1714427471160889,0.011943145655095578,-0.0008725523948669434,-0.34075039625167849,-0.00021180893236305565,-2.0729873180389406,-0.13877984881401063,-0.020915791392326356,-0.0386485792696476,0.456712007522583,1.0637747049331666,0.12572817504405976,0.36443960666656496,0.6263776421546936,-0.1826409548521042,0.1425684094429016,0.36778566241264346,0.5472844839096069,0.6911953687667847,-0.002662231680005789,-0.331209659576416,0.17440824210643769,-0.06525308638811112,0.3785208463668823,-0.27585136890411379,0.15982483327388764,0.4553414583206177,0.4845191240310669,-0.47165167331695559,0.13353002071380616,0.40238261222839358,-0.006261459086090326,0.3591766357421875,0.03775276243686676,-0.043231043964624408,-0.15844814479351045,0.7913480401039124,0.04792732000350952,-0.05977313220500946,0.27998754382133486,-0.03958756849169731,0.08467844128608704,-0.3098613917827606,-0.3326840400695801,-0.1273631453514099,-0.10216374695301056,-0.15742896497249604,-0.039131734520196918,0.270092248916626,-0.12279969453811646,0.1659400761127472,0.00029752819682471454,-0.1863400787115097,-0.3903636932373047,0.00012449448695406318,0.0008429301087744534,0.08250109851360321]}