{"saveLayers":[10,10,10,4],"saveNeurons":[5.999999046325684,7.0,0.0,1000.0,6.0,9.0,0.0,1000.0,0.0,1000.0,1.0,1.0,1.0,1.0,1.0,1.0,-1.0,1.0,1.0,-1.0,-0.9627082347869873,0.9731406569480896,-0.9327894449234009,0.8399717211723328,0.9999324083328247,-0.11155132204294205,0.5393936634063721,-0.7164072394371033,-0.6451325416564941,-0.9135434627532959,-0.6968963146209717,0.9968022108078003,0.6681697964668274,-0.7583500742912293],"saveWeights":[-0.08416435867547989,0.22471486032009126,0.22737455368041993,0.06863480061292649,0.2866385877132416,-0.12408089637756348,-0.03168177977204323,0.38081154227256777,0.021004164591431619,-0.4201216697692871,0.004958067089319229,0.05379798263311386,0.16620777547359467,-0.4399704933166504,0.08769112080335617,-0.23712153732776643,0.31768345832824709,0.24685609340667725,-0.06525086611509323,1.478102207183838,-0.31668636202812197,0.3064786195755005,0.5320517420768738,0.4176909923553467,0.058574236929416659,0.7401537299156189,-0.0004280958673916757,-0.07308056950569153,0.6463321447372437,-0.20246893167495728,-0.017772268503904344,0.46291065216064455,0.11767314374446869,0.8205980658531189,-0.022522063925862314,-0.22123104333877564,-0.37249839305877688,0.4609137773513794,0.03830369561910629,-0.8530446290969849,0.08638829737901688,-0.2820919454097748,0.3032710552215576,0.35380011796951296,-0.3197982907295227,-0.41791486740112307,0.4606649875640869,0.01551147736608982,0.03308938816189766,-0.1171865165233612,0.054254837334156039,-0.4641648530960083,0.22342930734157563,-0.1060805544257164,0.4198460876941681,0.2908761501312256,-0.29929494857788088,0.17324677109718324,-0.016266286373138429,0.21025389432907105,0.21634137630462647,-0.31349146366119387,0.08907876908779144,0.19082866609096528,-0.9801838994026184,-0.41164302825927737,-0.6366628408432007,-0.39534807205200198,0.013362362049520016,-0.3089362382888794,-0.6675662398338318,-0.6246894001960754,0.629321813583374,0.2452441304922104,0.4072585105895996,0.019136130809783937,0.28611642122268679,-0.41159844398498537,-0.0010620562825351954,0.47280561923980715,-0.4272184371948242,0.26624658703804018,-0.015490326099097729,0.08380047976970673,-0.17605775594711305,0.19303689897060395,0.08506833016872406,0.022810988128185273,-0.051413506269454959,0.47988569736480715,-0.4891781806945801,-0.05822533369064331,-0.33892953395843508,0.48816943168640139,-0.10703577846288681,0.193202406167984,0.005209164693951607,0.02321389690041542,0.3753855228424072,-0.683764636516571,0.011605792678892613,0.0025776540860533716,-0.014727771282196045,0.061208564788103107,-0.08705121278762818,-0.8335087299346924,0.0837569609284401,-1.0517899990081788,-0.1906650960445404,-0.20445352792739869,-0.24871546030044557,-0.16761593520641328,-0.002966912928968668,-0.03140832111239433,1.2834572792053223,0.9528918862342835,-0.1859329640865326,0.0024778624065220358,0.00007678378460695967,-0.17425376176834107,0.00047923772945068777,-0.09442609548568726,-0.47753846645355227,0.000021960793674224988,0.019454974681138994,0.9157827496528626,0.3391709327697754,0.4067748785018921,0.3353087604045868,2.446131467819214,-0.01799541711807251,0.13003046810626985,-0.045378051698207858,-0.28897276520729067,-0.047619838267564777,0.25161945819854739,-0.931894063949585,0.00004837362939724699,0.0013406288344413043,-0.3061104714870453,0.259232759475708,-0.2710517644882202,0.15326279401779176,0.010534822940826416,0.2615375518798828,0.15535950660705567,0.0027938548009842636,0.4149482250213623,0.19651459157466889,-3.970158815383911,0.0036396451760083439,0.003582507371902466,-0.04207342863082886,0.20520423352718354,-0.04948834329843521,-0.2539712190628052,0.0352211594581604,-0.008766311220824719,0.006089627742767334,-0.05898692086338997,0.07056722790002823,0.5676718354225159,4.083718181391305e-7,-0.353233277797699,-0.08748272806406021,-0.2428155392408371,-0.4096876084804535,0.216660276055336,-0.38070857524871828,-0.40295282006263735,-0.10805505514144898,-0.24984413385391236,0.11974865198135376,-0.4183976352214813,-0.39300137758255007,0.8439447283744812,0.572010338306427,0.3074721395969391,-0.30071771144866946,0.12936389446258546,0.0045155733823776249,0.061106935143470767,-0.1948516070842743,-0.3490098714828491,-0.07021693140268326,0.02506210282444954,-0.009886596351861954,0.2165677398443222,-0.43775898218154909,0.03221748769283295,0.18750284612178803,0.15222473442554475,0.2289743572473526,-0.7897012233734131,-0.020415842533111573,-0.09938633441925049,0.1567593365907669,0.3694326877593994,-0.4876248836517334,0.9327822327613831,-0.084719717502594,-0.5918739438056946,0.3481602668762207,-0.027253158390522004,0.00012041655281791463,-0.15968939661979676,0.21432870626449586,0.1658516526222229,0.04378587007522583,0.006183302495628595,-2.2154717445373537,-0.28077009320259097,0.03682072460651398,0.36482560634613039,0.1656969040632248,0.026861578226089479,-0.2734161615371704,-0.41497111320495608,0.279017835855484,-1.0445109605789185,0.41256195306777956,0.11054263263940811,-0.7310196757316589,0.12418860197067261,0.6322294473648071,-0.39185813069343569,-0.030222034081816675,0.3927990198135376,0.09540078043937683,0.006367276422679424,0.40560126304626467,-0.011586536653339863,-0.006284617818892002,0.4026627540588379,-1.0638142824172974,-0.002615235047414899,0.14427219331264497,-0.11556309461593628,0.2230982631444931,-0.1227218508720398]}